<?xml version="1.0"?>
<opencv_storage>
<opencv_ml_svm>
  <format>3</format>
  <svmType>C_SVC</svmType>
  <kernel>
    <type>LINEAR</type></kernel>
  <C>1.</C>
  <term_criteria><iterations>100</iterations></term_criteria>
  <var_count>864</var_count>
  <class_count>2</class_count>
  <class_labels type_id="opencv-matrix">
    <rows>2</rows>
    <cols>1</cols>
    <dt>i</dt>
    <data>
      -1 1</data></class_labels>
  <sv_total>1</sv_total>
  <support_vectors>
    <_>
      1.09927105e-02 -2.87566539e-02 2.00922564e-02 1.39761791e-02
      -8.93082172e-02 -4.78060590e-03 8.88887718e-02 4.18646261e-02
      5.68594113e-02 -7.00072572e-02 3.68817411e-02 -2.95677576e-02
      -1.64817065e-01 -1.79524459e-02 -2.16193758e-02 -3.17323133e-02
      -6.10272326e-02 4.62462922e-05 -1.36116045e-02 -4.68400568e-02
      -1.50681101e-02 -7.68268779e-02 1.11753391e-02 -4.77324240e-02
      4.22832221e-02 4.62068128e-04 1.35278963e-02 6.77935407e-02
      2.68143285e-02 6.91120252e-02 -3.56612839e-02 -9.50817112e-03
      -5.64756356e-02 -5.74895628e-02 -8.83178338e-02 -2.34606601e-02
      -1.94902939e-03 8.86645447e-03 -1.10911904e-04 -4.74631637e-02
      -5.35168126e-02 -1.41948342e-01 -8.45320821e-02 -1.12723904e-02
      -6.97639063e-02 7.41618127e-02 -1.83282681e-02 8.30304325e-02
      -1.66655816e-02 -6.78005069e-02 1.96921434e-02 -3.40904556e-02
      -7.03386292e-02 -2.99129472e-03 2.79945005e-02 -4.70472174e-03
      1.09980712e-02 2.58788355e-02 -8.34174380e-02 5.41218892e-02
      -2.66616535e-03 4.87778224e-02 -1.00076124e-01 -1.01805367e-01
      2.77461065e-03 6.97314814e-02 1.12683274e-01 1.07239634e-01
      -4.79276627e-02 -3.90273258e-02 -1.74018860e-01 -2.13753402e-01
      -2.34443769e-02 -7.97840208e-02 -1.04481354e-01 -1.11558668e-01
      1.57166049e-01 -3.94091345e-02 -2.50585694e-02 -1.32920131e-01
      -2.69418098e-02 -4.69519459e-02 -1.05221324e-01 1.22608133e-02
      -1.16946492e-02 1.44335002e-01 -8.77112150e-02 -1.20940156e-01
      -1.03463836e-01 -1.74389891e-02 -1.91201136e-01 -1.37725100e-01
      -6.64844066e-02 -4.64489050e-02 1.26708940e-01 9.18553025e-02
      1.57490727e-02 -2.41986401e-02 -1.39584854e-01 -1.26365930e-01
      -1.32908334e-03 1.45560298e-02 3.62715684e-02 -2.59272102e-02
      2.35952605e-02 -3.43605913e-02 -5.04812412e-02 9.89214052e-03
      -1.16203547e-01 -2.40024794e-02 -3.57709676e-02 6.58282414e-02
      5.38062770e-03 -1.27182037e-01 -8.24179575e-02 2.92381272e-03
      -6.65335730e-02 -2.06932076e-03 -2.11923763e-01 -1.08485371e-01
      -1.32835224e-01 -5.64101934e-02 -1.91631373e-02 5.55522367e-02
      -6.72135223e-03 5.74441701e-02 1.07073478e-01 5.08105196e-02
      -8.82068053e-02 -2.30400950e-01 -2.17584848e-01 -1.19435005e-01
      -7.23257065e-02 5.89756155e-03 1.67464182e-01 1.53482974e-01
      9.30544082e-03 -7.20323343e-03 -4.99684513e-02 -1.66110232e-01
      -2.13787496e-01 -1.36560023e-01 -1.03394613e-02 5.04417866e-02
      2.93067656e-02 1.52941290e-02 3.56906699e-03 -3.38897817e-02
      -3.53386402e-02 -4.86499332e-02 -1.23104125e-01 -2.08738163e-01
      2.10053772e-02 -6.48832619e-02 -1.79141276e-02 -5.79617880e-02
      -1.32966682e-01 3.01002469e-02 5.04093617e-02 -5.96762821e-03
      -1.59037579e-02 -8.18413571e-02 -1.51033312e-01 -1.27124399e-01
      -5.59142269e-02 -3.47414687e-02 -3.61059494e-02 7.71831274e-02
      -8.10457673e-03 -3.75859700e-02 -9.58954543e-02 2.99249999e-02
      -1.50714710e-01 -1.41119570e-01 -1.47937596e-01 -5.90760782e-02
      5.54647334e-02 8.00819173e-02 4.05931398e-02 2.52555441e-02
      -1.45150935e-02 -4.59490204e-03 -8.40136036e-02 -1.25377536e-01
      1.31054048e-03 -3.90883647e-02 -5.94988503e-02 -6.44152761e-02
      6.86747581e-02 6.75878823e-02 -1.06625870e-01 -5.04938029e-02
      -8.17581788e-02 -3.24893184e-02 -9.66822580e-02 -4.17532474e-02
      -4.68082866e-03 1.43082058e-02 3.87021750e-02 5.72248027e-02
      1.03715234e-01 6.14404567e-02 -5.14718369e-02 -1.27448857e-01
      -1.63091019e-01 -1.65227160e-01 -2.75720339e-02 -1.05694011e-01
      7.51098758e-03 3.83002460e-02 3.87775302e-02 -5.87553484e-03
      -6.96432218e-02 -6.15768395e-02 -1.07749186e-01 -1.34604320e-01
      -8.88310969e-02 -1.36431560e-01 -8.83191004e-02 -2.20811553e-02
      5.40479533e-02 4.16897424e-02 2.75898967e-02 3.66995148e-02
      -2.40939495e-04 -1.81582525e-01 -1.45619869e-01 -4.51881380e-04
      -1.52385412e-02 9.61749405e-02 1.15874998e-01 3.93992960e-02
      -8.25058296e-02 -5.44598885e-02 -6.57987222e-03 -1.22372918e-01
      6.82013407e-02 5.79187460e-02 4.17529345e-02 -4.64684293e-02
      6.58049732e-02 -3.21535170e-02 3.01990546e-02 3.73600386e-02
      -6.40244260e-02 -2.00130288e-02 -9.54324603e-02 6.18078932e-02
      4.50078808e-02 1.19977765e-01 -1.06257685e-01 6.07199445e-02
      -4.48685139e-02 -9.31048989e-02 9.11438838e-02 1.67552933e-01
      6.51621968e-02 -4.23968881e-02 -1.22910487e-02 -1.40701830e-01
      -1.66760400e-01 2.03656610e-02 4.58142534e-02 1.52224824e-02
      -4.05271817e-03 1.96261425e-02 -4.28397283e-02 -7.80010782e-03
      -1.28582835e-01 -6.97314516e-02 -3.65135819e-02 -7.25550503e-02
      -1.91150177e-02 -3.73087376e-02 3.42816003e-02 -3.08402386e-02
      -1.00542389e-01 -8.16898495e-02 2.22505797e-02 -1.44229963e-01
      -1.79408282e-01 -4.38166000e-02 -4.56609800e-02 -1.22799017e-02
      5.01949154e-03 1.06944896e-01 -3.56115215e-02 -1.21723771e-01
      2.12026201e-02 -3.39982361e-02 -2.11698040e-02 -2.88565494e-02
      1.07868889e-03 3.15972865e-02 6.65924279e-03 -4.30506617e-02
      -9.88890696e-03 -3.70587362e-03 -4.34329361e-02 1.96634531e-02
      2.17064824e-02 1.87031776e-02 2.07392368e-02 -4.92780246e-02
      -9.87004042e-02 -2.23617582e-03 -1.07515886e-01 -4.46672253e-02
      9.01998580e-02 1.49302939e-02 1.35851447e-02 -1.37074925e-02
      -5.46103157e-03 -1.42651647e-01 -1.59844935e-01 2.28347443e-03
      -8.48845690e-02 -7.51647875e-02 -2.62454916e-02 2.41625006e-03
      -4.55717817e-02 -1.25799291e-02 -5.19615151e-02 -1.56261716e-02
      -2.64691226e-02 -1.61628112e-01 -1.28773287e-01 -1.09455967e-02
      4.25835438e-02 8.65155645e-03 -4.22221012e-02 -6.60175383e-02
      -4.27658483e-02 -1.09329864e-01 -1.07544899e-01 -2.99282912e-02
      -6.07804172e-02 -1.12598993e-01 -2.65617799e-02 3.15478407e-02
      -8.14470723e-02 -1.42446561e-02 5.33023328e-02 -1.01654060e-01
      -9.24000591e-02 -9.16684121e-02 -2.00446565e-02 -1.08189054e-01
      1.14337884e-01 -7.86359143e-03 7.72443414e-02 6.09331280e-02
      -6.29378948e-03 8.09974149e-02 -1.17231667e-01 -4.20264192e-02
      -4.33847234e-02 -4.58587222e-02 -7.95235708e-02 7.16760606e-02
      8.97848513e-05 -6.65204450e-02 2.85672359e-02 -1.29238693e-02
      -7.18346387e-02 -4.75615524e-02 -4.77150455e-02 -1.45293325e-01
      -1.00620538e-01 -5.67294359e-02 -7.31842592e-02 -6.19035698e-02
      -9.74296872e-03 5.03978506e-02 -2.55300989e-03 -7.96103328e-02
      -1.69747517e-01 -7.23545551e-02 -1.28406227e-01 -1.26615793e-01
      1.40547268e-02 9.32343118e-03 1.42476305e-01 7.08299503e-02
      3.94708402e-02 -4.86391224e-02 -7.95323104e-02 -7.29479566e-02
      -8.20649713e-02 -5.62048890e-03 -2.29781885e-02 -1.25756348e-02
      4.11842726e-02 -2.98482645e-03 -8.70758444e-02 -9.22853649e-02
      2.58380584e-02 -7.70877972e-02 -1.15079973e-02 -8.33635591e-03
      -9.20078233e-02 -5.37334830e-02 4.13662978e-02 -1.42237572e-02
      7.09815621e-02 4.09862585e-02 -1.65656842e-02 1.57436617e-02
      -3.59277762e-02 -6.36513755e-02 3.24585401e-02 -2.37863064e-02
      -6.22132309e-02 -6.21096930e-03 -8.74392018e-02 -5.05663641e-02
      -6.36949316e-02 -6.46058796e-03 -3.55775729e-02 -1.26187736e-02
      4.31380533e-02 -7.21555203e-02 -5.07691316e-02 -6.25113845e-02
      -6.59033731e-02 2.40327381e-02 2.31420994e-02 1.14004530e-01
      3.85893695e-02 -3.49094882e-03 -1.53277293e-01 -1.07581690e-01
      -3.92525224e-03 -1.78936850e-02 -7.41248876e-02 -1.23104699e-01
      -9.16836504e-03 -2.05960944e-02 -7.72842392e-02 -9.93312821e-02
      4.63433713e-02 9.98821016e-03 -1.60296381e-01 4.10236754e-02
      -7.71842301e-02 -6.26143590e-02 -1.72652647e-01 -7.46299326e-03
      -1.35211358e-02 2.44378876e-02 8.62481743e-02 3.33524197e-02
      7.15037659e-02 -3.29660103e-02 -1.86145827e-01 -6.75754324e-02
      -2.19907071e-02 -5.66891134e-02 2.36657746e-02 4.70068902e-02
      -5.40556833e-02 2.48083603e-02 -5.82961477e-02 -1.68326825e-01
      -1.22304652e-02 4.84778993e-02 4.89010625e-02 7.78007358e-02
      -3.69204730e-02 -1.10692801e-02 2.50376463e-02 -1.12577260e-01
      -2.10964810e-02 -8.23100507e-02 -7.08707096e-03 -1.58939540e-01
      -3.27280425e-02 2.40744855e-02 -8.50957856e-02 -1.30256414e-01
      -3.35137099e-02 1.92174744e-02 -9.60038751e-02 -4.08654772e-02
      -5.16667925e-02 -2.99379937e-02 -7.25020543e-02 -2.32440066e-02
      -7.53089786e-03 -1.25173181e-01 7.19532520e-02 -2.55409256e-02
      -4.29127663e-02 -6.01758137e-02 -7.95504749e-02 -5.65425828e-02
      -1.76321760e-01 7.07208440e-02 5.86681664e-02 1.49626657e-01
      1.03032343e-01 3.95746082e-02 -1.16812766e-01 -1.98606290e-02
      -1.07205257e-01 -1.68727875e-01 -1.90122742e-02 8.43425542e-02
      5.26992902e-02 1.03264622e-01 7.62764923e-03 -1.05289496e-01
      -1.75178364e-01 -1.71679273e-01 -1.15297131e-01 2.30628327e-02
      1.34574115e-01 4.25743945e-02 1.38677731e-01 -5.72793074e-02
      -1.94574058e-01 -9.76787210e-02 -1.49545008e-02 -1.15901127e-01
      1.37700345e-02 7.60549381e-02 1.50891274e-01 5.10669872e-02
      8.02042931e-02 -1.69772595e-01 -5.73104545e-02 -4.98093292e-02
      -2.43811999e-02 -1.13866366e-02 -1.44512597e-02 7.55950734e-02
      -1.54171228e-01 -4.43638721e-03 -2.85719521e-02 -5.43310679e-02
      -1.89893611e-03 -6.05211072e-02 2.09537409e-02 -1.47456080e-01
      8.38977471e-03 -1.09052666e-01 -6.01859055e-02 3.68885952e-03
      5.62820816e-03 -9.27275345e-02 -6.46468252e-02 9.15196836e-02
      7.68017694e-02 1.05503380e-01 -1.77252721e-02 -5.02046868e-02
      -2.64936071e-02 -1.04111776e-01 -2.65702158e-02 -9.57880244e-02
      -3.00476421e-02 -8.72684419e-02 -1.36958649e-02 -2.43691914e-02
      -1.26527082e-02 -5.10953069e-02 -4.65443544e-02 -3.49115133e-02
      -4.70170230e-02 1.24313887e-02 2.46468782e-02 5.99169992e-02
      -8.82600322e-02 -1.79968011e-02 -1.06791332e-01 -3.56382877e-02
      -1.43349692e-01 -4.85171117e-02 -2.03932617e-02 -2.79931556e-02
      9.18877944e-02 6.74211606e-02 1.01001278e-01 -4.76075662e-03
      -8.97583142e-02 -9.00133979e-03 6.40463457e-02 -4.60709585e-03
      -8.27337280e-02 4.88313548e-02 -1.49328947e-01 4.50212322e-02
      -1.66564379e-02 3.43503840e-02 4.14254367e-02 4.36032973e-02
      5.24005815e-02 -7.03107342e-02 -1.24261416e-02 -5.26201166e-03
      6.29894510e-02 -2.57488824e-02 1.75985117e-02 -1.61775798e-01
      -1.75562471e-01 -1.34077638e-01 -4.98000979e-02 1.12493701e-01
      7.58902803e-02 1.23933502e-01 -1.83129404e-02 1.45691112e-02
      -5.44293858e-02 -9.77086499e-02 3.77209522e-02 -3.77485491e-02
      -3.04979682e-02 -7.29432926e-02 1.00311503e-01 -8.75201914e-03
      -1.65890362e-02 2.72873640e-02 -2.01720688e-02 1.18215121e-01
      -5.90153597e-02 -7.32551343e-05 -5.39481640e-02 -4.75285947e-02
      -1.25088364e-01 -7.01657683e-02 6.99807331e-02 -2.21973099e-02
      9.20127779e-02 3.86452563e-02 5.84314056e-02 -8.48725289e-02
      -1.10857658e-01 -1.86404586e-01 -1.00743972e-01 2.65783481e-02
      1.97103489e-02 6.81641176e-02 -2.66766250e-02 2.22308394e-02
      -1.13254875e-01 5.09188585e-02 1.13669090e-01 7.10875914e-02
      1.39858946e-02 -2.46508662e-02 1.02128446e-01 6.53564325e-03
      -6.08566105e-02 -9.43615213e-02 1.93203683e-03 1.34585395e-01
      -3.40968999e-03 -8.93280357e-02 -1.11781389e-01 -1.59395486e-02
      2.38324963e-02 7.43090585e-02 -4.87731118e-03 7.30116293e-02
      -5.98290823e-02 -1.07842768e-02 -4.05909792e-02 -1.05043575e-01
      -4.47494797e-02 5.48041202e-02 5.29789068e-02 -5.78470994e-03
      -2.69470811e-02 -8.50144774e-02 -7.13075697e-02 -8.45890418e-02
      -1.08398311e-01 -2.88198832e-02 -1.71391182e-02 6.42433688e-02
      4.85873818e-02 -1.75195429e-02 -9.28575024e-02 -1.51139842e-02
      -4.59789820e-02 5.59234852e-03 1.10063218e-01 -9.19193495e-03
      4.82489727e-02 8.62419046e-03 -7.73379114e-04 -1.39951959e-01
      -4.74539213e-02 3.61335352e-02 1.39274359e-01 -2.72437986e-02
      -6.66770712e-02 -6.73126951e-02 5.69811743e-03 8.96435380e-02
      -1.54898851e-03 3.30509581e-02 4.16837893e-02 -5.18779457e-02
      -1.14708971e-02 -9.37084779e-02 -3.13090682e-02 3.55753601e-02
      5.63850254e-02 3.52409706e-02 2.90378742e-02 -8.63299295e-02
      -1.28845468e-01 -1.54115679e-02 -6.46209717e-02 6.12188503e-02
      6.00998476e-02 -3.77222896e-02 -1.20472088e-02 -2.63205543e-02
      -4.32424992e-03 -4.76940498e-02 1.85008422e-02 3.24871317e-02
      1.02291726e-01 -6.79878145e-02 -5.36958911e-02 -7.36125112e-02
      -3.36418971e-02 -2.14649383e-02 -8.77284557e-02 -8.31029117e-02
      -8.91266391e-02 7.49568641e-02 1.18352026e-02 4.12404463e-02
      -6.49832487e-02 -5.32290079e-02 1.92985907e-02 5.72512299e-02
      -1.42755229e-02 3.42851207e-02 1.74077461e-04 -6.39845356e-02
      -1.81586295e-02 -1.33436546e-01 -1.31732300e-01 2.00076923e-02
      4.77040447e-02 7.44918734e-02 7.07430914e-02 -3.63972457e-03
      -3.42726931e-02 3.67910340e-02 -3.36982198e-02 5.31395562e-02
      -6.60621226e-02 -1.20120473e-01 3.68950106e-02 -1.01885647e-02
      6.15896136e-02 4.93571684e-02 8.96838009e-02 4.40278463e-03
      4.18390818e-02 -3.48578878e-02 -2.66486034e-02 -2.02162750e-02
      -4.77937050e-02 -5.15531674e-02 -1.09830454e-01 4.13321592e-02
      -9.31358114e-02 -1.50219388e-02 -7.02299476e-02 -6.65197819e-02
      4.67745438e-02 -2.18480065e-01 -1.59715805e-02 -3.21990959e-02
      1.19058955e-02 2.55918433e-03 3.27754766e-02 -3.03227715e-02
      -1.71344243e-02 2.51212600e-03 2.17024051e-02 -1.46354281e-03
      -2.23735362e-01 5.10383071e-03 -9.19100568e-02 -9.36717913e-02
      -1.39081450e-02 -1.10784285e-01 3.69551219e-02 -7.53569081e-02
      -7.02572614e-02 -5.73170111e-02 -3.13790212e-03 -8.93772393e-03
      2.27278867e-03 1.20494496e-02 -1.19088851e-02 6.84865937e-02
      2.72789784e-03 7.35179558e-02 -8.44672136e-03 -8.52839556e-03
      -8.50082636e-02 -4.83057164e-02 1.06442027e-01 2.75283493e-02
      1.37263492e-01 -1.55197665e-01 -6.38312101e-02 -2.25620449e-01
      8.22516996e-03 -1.94482505e-02 7.92515278e-02 1.12814024e-01
      2.80586332e-02 3.60659175e-02 -1.06794156e-01 -2.54844483e-02
      -2.69969553e-01 -1.16070909e-02 5.42654097e-02 1.31310359e-01
      8.05891976e-02 5.89978099e-02 3.21481191e-02 -2.11916775e-01
      -1.46652386e-01 -1.37498692e-01 -2.20922474e-02 1.69295426e-02
      1.00765526e-01 1.39655411e-01 -8.76367651e-03 2.37647630e-02
      -1.54013276e-01 -1.51719093e-01 -2.04844102e-01 6.10731193e-04
      7.92462900e-02 6.71074837e-02 1.46649241e-01 6.79651722e-02
      1.85273569e-02 -2.41867289e-01 -4.35928144e-02 -1.17013507e-01
      -1.84678705e-03 3.34014930e-02 1.05355449e-01 4.70894948e-02
      -2.22440790e-02 -1.78176425e-02 -2.42477328e-01 -3.54667120e-02
      -9.61691141e-02 8.93207267e-02 1.28379846e-02 8.91006961e-02</_></support_vectors>
  <uncompressed_sv_total>125</uncompressed_sv_total>
  <uncompressed_support_vectors>
    <_>
      2.96438396e-01 1.40653461e-01 7.43383467e-02 3.54253829e-01
      4.03810650e-01 4.03810650e-01 3.84491473e-01 3.52500558e-01
      3.98833930e-01 3.54029059e-01 2.68308043e-01 2.17066124e-01
      3.54029059e-01 3.54029059e-01 3.54029059e-01 3.54029059e-01
      3.54029059e-01 3.54029059e-01 3.69852424e-01 2.52464175e-01
      3.69852424e-01 3.69852424e-01 3.69852424e-01 3.69852424e-01
      1.80931523e-01 3.69852424e-01 2.81221479e-01 3.88634413e-01
      3.88634413e-01 2.29810283e-01 1.71405002e-01 2.52251834e-01
      3.08399796e-01 3.88634413e-01 3.88634413e-01 3.88634413e-01
      3.71087909e-01 1.42185524e-01 3.71087909e-01 3.71087909e-01
      3.71087909e-01 3.71087909e-01 3.71087909e-01 1.45914346e-01
      3.58535141e-01 4.13742751e-01 3.19048673e-01 1.12093002e-01
      3.81782323e-01 4.13742751e-01 3.93937051e-01 1.42331451e-01
      2.16237038e-01 4.13742751e-01 3.50013524e-01 3.50013524e-01
      2.36664757e-01 3.50013524e-01 3.50013524e-01 3.50013524e-01
      2.87969351e-01 3.50013524e-01 3.50013524e-01 3.30537647e-01
      1.80696815e-01 3.52314562e-01 3.62750262e-01 3.62750262e-01
      3.62750262e-01 3.62750262e-01 3.62750262e-01 2.69081473e-01
      2.91424710e-02 5.36403023e-02 2.09709499e-02 2.57477522e-01
      2.56304055e-01 4.63470042e-01 4.63470042e-01 4.63470042e-01
      4.63470042e-01 1.24703772e-01 3.36577147e-01 3.52064788e-01
      3.52064788e-01 3.52064788e-01 3.52064788e-01 3.52064788e-01
      3.52064788e-01 3.52064788e-01 3.94694239e-01 3.94694239e-01
      4.74046431e-02 3.78188908e-01 3.94694239e-01 3.94694239e-01
      3.94694239e-01 2.03371599e-01 1.74657643e-01 4.24198776e-01
      4.24198776e-01 4.24198776e-01 2.50627786e-01 3.12271446e-01
      6.64374977e-02 1.65002361e-01 2.89856136e-01 4.24198776e-01
      8.10509697e-02 5.55439442e-02 7.72289410e-02 3.32314134e-01
      5.20317972e-01 5.20317972e-01 5.20317972e-01 1.75323114e-01
      1.60690978e-01 4.32783887e-02 4.49581921e-01 2.80323774e-01
      4.49581921e-01 4.49581921e-01 4.49581921e-01 2.22491205e-01
      1.15960702e-01 2.08830297e-01 4.61860329e-01 4.61860329e-01
      4.61860329e-01 4.61860329e-01 2.06055567e-01 1.49891540e-01
      9.23258364e-02 1.32319322e-02 2.61727720e-01 3.07323426e-01
      2.34649420e-01 3.65744561e-01 2.74746120e-01 3.65744561e-01
      3.65744561e-01 3.65744561e-01 3.65744561e-01 3.20167154e-01
      3.06655794e-01 3.30092102e-01 3.37302476e-01 3.37302476e-01
      3.33157063e-01 3.37302476e-01 3.37302476e-01 3.37302476e-01
      3.37302476e-01 4.32830334e-01 4.32830334e-01 2.26438984e-01
      1.45616576e-01 6.89902976e-02 2.69334286e-01 3.10690701e-01
      4.32830334e-01 4.32830334e-01 8.15645382e-02 4.08203512e-01
      4.08203512e-01 4.08203512e-01 4.08203512e-01 4.08203512e-01
      3.85710210e-01 1.96014885e-02 8.34402442e-02 3.79938811e-01
      3.79938811e-01 3.37308869e-02 9.82192531e-02 3.79938811e-01
      3.59287947e-01 3.79938811e-01 3.66829932e-01 3.79938811e-01
      2.60421466e-02 5.06969318e-02 9.39375162e-02 3.16379815e-01
      4.69708651e-01 4.69708651e-01 4.69708651e-01 4.69708651e-01
      2.51951236e-02 1.32135287e-01 1.74783751e-01 3.24089646e-01
      4.40207541e-01 4.40207541e-01 4.40207541e-01 2.17037812e-01
      1.42559975e-01 4.40207541e-01 3.72177869e-01 2.85878330e-01
      2.44274601e-01 1.54230237e-01 3.72177869e-01 3.72177869e-01
      3.72177869e-01 3.72177869e-01 3.72177869e-01 2.99450099e-01
      1.28823787e-01 1.37316287e-01 3.81023139e-01 3.81023139e-01
      3.81023139e-01 3.81023139e-01 3.81023139e-01 3.81023139e-01
      1.04490802e-01 2.70762712e-01 3.03617567e-01 4.51181233e-01
      4.51181233e-01 4.51181233e-01 4.51181233e-01 4.49367575e-02
      5.29293455e-02 3.32778692e-01 3.32778692e-01 3.32778692e-01
      3.32778692e-01 3.32778692e-01 3.32778692e-01 3.32778692e-01
      3.32778692e-01 3.32778692e-01 3.79740208e-01 2.26163775e-01
      1.72082558e-01 3.09939474e-01 3.79740208e-01 3.79740208e-01
      3.79740208e-01 3.79740208e-01 3.13637018e-01 4.92537506e-02
      1.92133173e-01 4.41599131e-01 4.41599131e-01 4.41599131e-01
      4.15938169e-01 4.03048903e-01 1.77374408e-01 6.56032190e-02
      3.44936490e-01 3.44936490e-01 3.44936490e-01 3.44936490e-01
      3.44936490e-01 3.44936490e-01 3.44936490e-01 2.11433589e-01
      3.44936490e-01 1.13630474e-01 1.32772893e-01 2.47270510e-01
      4.11107600e-01 4.11107600e-01 4.11107600e-01 4.11107600e-01
      4.11107600e-01 2.43233711e-01 1.31147996e-01 7.74500147e-02
      3.36196929e-01 3.07164580e-01 4.13926512e-01 4.13926512e-01
      4.13926512e-01 3.59941632e-01 3.48890901e-01 4.18095849e-02
      1.21776760e-01 4.19570118e-01 4.19570118e-01 4.19570118e-01
      4.19570118e-01 4.19570118e-01 2.91016966e-01 1.19770147e-01
      2.50363708e-01 6.26286566e-02 7.18902647e-02 9.45063382e-02
      2.57309020e-01 1.12023585e-01 3.00919354e-01 6.09875858e-01
      6.09875858e-01 8.22869614e-02 1.95300840e-02 7.97631685e-03
      5.51609788e-03 5.31223118e-02 3.33585173e-01 5.39525807e-01
      5.39525807e-01 5.39525807e-01 3.49029422e-01 1.49586350e-01
      3.49029422e-01 3.49029422e-01 3.49029422e-01 3.48404855e-01
      3.49029422e-01 3.49029422e-01 3.49029422e-01 3.63728315e-01
      3.63728315e-01 3.63728315e-01 3.63728315e-01 3.63728315e-01
      1.80840060e-01 1.93842515e-01 3.63728315e-01 3.63728315e-01
      3.42455715e-01 3.42455715e-01 2.41601050e-01 3.42455715e-01
      3.42455715e-01 3.42455715e-01 3.42455715e-01 3.42455715e-01
      3.42455715e-01 2.30510861e-01 9.58177969e-02 9.49421525e-02
      2.20682770e-01 4.18518305e-01 4.18518305e-01 4.18518305e-01
      4.18518305e-01 4.18518305e-01 4.43241686e-01 4.43241686e-01
      2.88524508e-01 1.80326328e-01 2.34127626e-01 4.96118367e-02
      1.91516340e-01 4.43241686e-01 4.43241686e-01 4.51856464e-01
      7.04457834e-02 7.56972358e-02 6.76574260e-02 1.53724939e-01
      3.74015987e-01 4.51856464e-01 4.51856464e-01 4.51856464e-01
      3.48609895e-01 3.48609895e-01 3.48609895e-01 1.55839458e-01
      3.48609895e-01 3.48609895e-01 3.48609895e-01 3.48609895e-01
      3.48609895e-01 3.16425592e-01 3.52344275e-01 3.27067226e-01
      3.40132594e-01 3.52344275e-01 3.52344275e-01 3.52344275e-01
      2.30128393e-01 3.52344275e-01 2.30192572e-01 1.85930282e-01
      1.49235755e-01 2.29150400e-01 4.08308983e-01 4.08308983e-01
      4.08308983e-01 4.08308983e-01 4.08308983e-01 2.63274878e-01
      3.83708358e-01 2.08128691e-01 2.56244570e-01 3.83708358e-01
      2.85856187e-01 3.83708358e-01 3.83708358e-01 3.83708358e-01
      4.20921415e-01 4.20921415e-01 3.38458538e-01 5.57073168e-02
      7.64944926e-02 7.39576668e-02 3.97639602e-01 4.20921415e-01
      4.20921415e-01 4.01149124e-01 4.01149124e-01 7.88776502e-02
      2.16902733e-01 8.91336575e-02 4.01149124e-01 4.01149124e-01
      3.60799372e-01 4.01149124e-01 5.16421378e-01 5.16421378e-01
      5.07311940e-01 2.06401110e-01 6.97450191e-02 1.02542318e-01
      8.86397213e-02 7.13657066e-02 3.64916861e-01 2.50573218e-01
      2.54633099e-01 2.19694734e-01 4.31095839e-01 4.31095839e-01
      4.31095839e-01 3.01306874e-01 3.50435674e-01 2.20637992e-01
      3.57534796e-01 2.56474882e-01 3.57534796e-01 3.57534796e-01
      3.57534796e-01 3.57534796e-01 3.57534796e-01 3.57534796e-01
      1.89289957e-01 3.82284462e-01 3.27258319e-01 3.11442241e-02
      1.06134832e-01 3.82284462e-01 3.82284462e-01 3.82284462e-01
      3.82284462e-01 3.82284462e-01 4.58868951e-01 4.58868951e-01
      1.00448444e-01 2.19118153e-03 2.24897936e-02 3.08789946e-02
      3.76323998e-01 4.58868951e-01 4.58868951e-01 3.58750433e-01
      3.58750433e-01 3.58750433e-01 3.58750433e-01 3.58750433e-01
      3.58750433e-01 3.26428205e-01 2.24022299e-01 2.59736538e-01
      5.44830978e-01 1.49305210e-01 2.65163258e-02 4.07313332e-02
      4.11019363e-02 1.21199585e-01 2.51005709e-01 5.44830978e-01
      5.44830978e-01 4.03647721e-01 3.29256028e-01 4.03647721e-01
      1.09880842e-01 4.03647721e-01 2.44856685e-01 3.32735717e-01
      2.30413616e-01 4.03647721e-01 3.32778692e-01 3.32778692e-01
      3.32778692e-01 3.32778692e-01 3.32778692e-01 3.32778692e-01
      3.32778692e-01 3.32778692e-01 3.32778692e-01 3.35553348e-01
      3.35553348e-01 3.35553348e-01 3.35553348e-01 3.09643179e-01
      3.35553348e-01 3.35553348e-01 3.35553348e-01 3.35553348e-01
      5.03069460e-01 3.84694695e-01 1.19924299e-01 2.13930324e-01
      4.78229448e-02 7.47577399e-02 1.40446991e-01 5.03069460e-01
      5.03069460e-01 3.88068020e-01 3.88068020e-01 2.91515738e-01
      7.33317211e-02 3.88068020e-01 4.67276908e-02 3.88068020e-01
      3.88068020e-01 3.88068020e-01 1.19821459e-01 2.43897233e-02
      1.55893480e-02 4.06406000e-02 2.09572930e-02 3.23225483e-02
      4.94065136e-02 6.97233140e-01 6.97233140e-01 3.61147732e-01
      2.39949629e-01 3.61147732e-01 1.60692692e-01 3.61147732e-01
      3.61147732e-01 3.61147732e-01 3.61147732e-01 3.61147732e-01
      3.48241895e-01 3.48241895e-01 3.48241895e-01 3.48241895e-01
      3.48241895e-01 3.48241895e-01 3.48241895e-01 1.62300244e-01
      3.48241895e-01 3.40183735e-01 3.40183735e-01 3.40183735e-01
      3.40183735e-01 3.40183735e-01 3.40183735e-01 3.40183735e-01
      2.66084999e-01 3.40183735e-01 5.16436875e-01 5.16436875e-01
      5.16436875e-01 1.40116543e-01 1.14163226e-02 8.48595239e-03
      8.95368829e-02 9.12564844e-02 3.98172945e-01 1.80537224e-01
      4.15137678e-01 4.15137678e-01 4.15137678e-01 1.77970096e-01
      4.15137678e-01 4.15137678e-01 2.17055127e-01 1.50918916e-01
      5.66132963e-01 5.62136881e-02 2.29260605e-02 1.40686380e-02
      2.99166120e-03 3.64614911e-02 1.66148216e-01 5.66132963e-01
      5.66132963e-01 2.39861697e-01 8.63331407e-02 4.09079045e-01
      2.04686135e-01 4.09079045e-01 2.28695691e-01 4.09079045e-01
      4.09079045e-01 4.09079045e-01 2.24493399e-01 1.50102228e-01
      3.97383928e-01 3.97383928e-01 3.97383928e-01 3.97383928e-01
      3.97383928e-01 3.40591937e-01 1.32398680e-01 2.45499596e-01
      5.42361081e-01 5.42361081e-01 5.42361081e-01 1.08247921e-01
      5.82370013e-02 3.05443257e-02 1.62794325e-03 1.89215019e-01
      1.88557893e-01 5.30565917e-01 5.30565917e-01 5.30565917e-01
      2.04744130e-01 2.52979487e-01 6.45365426e-03 1.65837388e-02
      9.17139053e-02 4.37201470e-01 4.37201470e-01 3.98748487e-01
      4.77109551e-02 6.75576553e-02 2.25833848e-01 1.19208321e-01
      4.37201470e-01 4.37201470e-01 3.90622467e-01 3.90622467e-01
      3.90622467e-01 3.90622467e-01 1.79429322e-01 9.86310765e-02
      1.96618825e-01 3.90622467e-01 3.90622467e-01 3.47780675e-01
      3.47780675e-01 3.47780675e-01 3.47780675e-01 3.47780675e-01
      1.70041442e-01 3.47780675e-01 3.47780675e-01 3.47780675e-01
      2.36354023e-01 6.76550806e-01 6.76550806e-01 1.94266569e-02
      5.95841408e-02 3.06581967e-02 5.01169860e-02 1.10511869e-01
      4.84632999e-02 5.51938236e-01 5.51938236e-01 5.51938236e-01
      4.43812534e-02 1.87517479e-01 8.77314061e-02 8.74557812e-03
      1.49466172e-01 1.15476742e-01 3.89023453e-01 3.89023453e-01
      3.89023453e-01 3.89023453e-01 2.80650526e-01 3.44327182e-01
      1.92080304e-01 7.20870718e-02 3.89023453e-01 3.87909263e-01
      3.87909263e-01 2.77035922e-01 3.87909263e-01 2.79436320e-01
      2.21084699e-01 2.00111851e-01 3.87909263e-01 3.87909263e-01
      5.70449114e-01 1.27806932e-01 7.38260150e-02 1.50810760e-02
      6.20260052e-02 3.67253304e-01 1.17543526e-01 4.11008775e-01
      5.70449114e-01 3.07440996e-01 2.21025348e-01 3.49109054e-01
      3.49109054e-01 3.49109054e-01 3.49109054e-01 3.49109054e-01
      3.49109054e-01 3.49109054e-01 1.74501851e-01 9.60129499e-02
      3.68458452e-03 2.67343596e-02 1.47673771e-01 2.63741910e-01
      5.36308110e-01 5.36308110e-01 5.36308110e-01 5.01866519e-01
      5.01866519e-01 5.01866519e-01 3.57596278e-01 1.20095089e-01
      7.74087533e-02 6.27316535e-02 1.00411996e-01 2.77614444e-01
      3.31866890e-01 2.13253006e-01 2.14850977e-01 2.88837492e-01
      4.46616620e-01 4.46616620e-01 2.21392393e-01 2.50847727e-01
      4.46616620e-01 3.36629897e-01 3.36629897e-01 3.36629897e-01
      3.36629897e-01 3.36629897e-01 3.36629897e-01 3.00131947e-01
      3.36629897e-01 3.36629897e-01 5.29043138e-01 1.86934546e-01
      1.04542263e-01 1.57841668e-01 2.63868928e-01 5.79148233e-02
      1.06245309e-01 5.29043138e-01 5.29043138e-01 3.67042154e-01
      2.79563993e-01 2.43020177e-01 3.67042154e-01 3.67042154e-01
      3.43540251e-01 2.59804755e-01 3.67042154e-01 3.67042154e-01
      9.83959287e-02 5.03266566e-02 1.03427008e-01 7.77668580e-02
      3.11625123e-01 4.66174364e-01 4.66174364e-01 4.66174364e-01
      4.66174364e-01 3.89283746e-01 9.10528153e-02 3.89283746e-01
      3.89283746e-01 3.89283746e-01 3.82044196e-01 2.03980595e-01
      3.89283746e-01 2.06265479e-01 2.53101498e-01 2.60852333e-02
      1.54741108e-01 4.12362546e-01 4.12362546e-01 4.12362546e-01
      4.12362546e-01 4.12362546e-01 2.38706559e-01 7.08114207e-02
      4.30227220e-02 2.74822712e-01 4.55977827e-01 4.55977827e-01
      4.55977827e-01 4.55977827e-01 2.16876328e-01 1.85349002e-01
      4.47448164e-01 1.93783119e-01 7.57357180e-02 1.18261956e-01
      4.42528754e-01 7.63876513e-02 3.68728131e-01 4.47448164e-01
      4.47448164e-01 1.61745474e-01 6.37444621e-03 1.98014826e-02
      1.57302231e-01 1.79031312e-01 2.71505386e-01 3.49929750e-01
      5.97693622e-01 5.97693622e-01 3.89906943e-01 3.30985576e-01
      6.46252334e-02 4.06456403e-02 3.89906943e-01 3.47257257e-01
      3.89906943e-01 3.89906943e-01 3.89906943e-01 4.05520111e-01
      1.11760631e-01 1.97954953e-01 1.18031144e-01 4.05520111e-01
      4.05520111e-01 4.05520111e-01 3.28797817e-01 4.05520111e-01
      1.58680707e-01 1.15302123e-01 2.68052965e-01 3.84238392e-01
      3.84238392e-01 3.84238392e-01 3.84238392e-01 3.84238392e-01
      3.84238392e-01 2.47328535e-01 2.16902718e-02 2.53829807e-01
      1.09696880e-01 5.29066920e-01 5.29066920e-01 5.29066920e-01
      5.59084900e-02 1.17262378e-01 1.36726335e-01 1.08321078e-01
      2.02793732e-01 4.95727688e-01 5.07849932e-01 5.07849932e-01
      2.60938138e-01 1.54777423e-01 2.64123559e-01 2.02435441e-02
      2.94767832e-03 9.58625451e-02 5.38982987e-01 5.38982987e-01
      5.38982987e-01 2.61642605e-01 2.09137410e-01 3.61395776e-02</_>
    <_>
      4.14981574e-01 2.25900739e-01 1.93644479e-01 3.11574072e-01
      4.14981574e-01 4.14981574e-01 1.65293023e-01 3.06734681e-01
      4.14981574e-01 3.36643010e-01 1.42403170e-01 3.71813625e-01
      3.71813625e-01 3.71813625e-01 3.71813625e-01 3.71813625e-01
      1.82224885e-01 3.71813625e-01 3.64256620e-01 3.64256620e-01
      3.64256620e-01 2.91865468e-01 2.24991679e-01 2.67757028e-01
      3.54183078e-01 3.64256620e-01 3.64256620e-01 2.97015488e-01
      3.68176877e-01 1.60516649e-01 3.68176877e-01 3.68176877e-01
      3.68176877e-01 3.68176877e-01 2.62702346e-01 3.68176877e-01
      3.58403832e-01 3.58403832e-01 3.58403832e-01 3.58403832e-01
      3.58403832e-01 3.58403832e-01 1.76592484e-01 2.57023722e-01
      3.58403832e-01 3.78143758e-01 3.56317133e-01 3.53044599e-01
      3.78143758e-01 3.78143758e-01 3.78143758e-01 6.89209476e-02
      1.57816485e-01 3.78143758e-01 4.53176647e-01 2.46051818e-01
      1.53472185e-01 6.74467757e-02 2.05036625e-01 2.08117008e-01
      4.53176647e-01 4.53176647e-01 4.53176647e-01 1.86019912e-01
      2.41948038e-01 3.92389715e-01 3.92389715e-01 3.92389715e-01
      3.61767918e-01 4.70464639e-02 3.92389715e-01 3.92389715e-01
      2.92754889e-01 3.64094943e-01 3.64094943e-01 3.64094943e-01
      3.64094943e-01 3.64094943e-01 3.64094943e-01 3.16435218e-01
      1.23024106e-01 4.62107331e-01 4.62107331e-01 4.62107331e-01
      4.62107331e-01 2.68800199e-01 2.43666008e-01 2.76377480e-02
      8.49135891e-02 4.01322059e-02 3.43495429e-01 3.43495429e-01
      3.43495429e-01 3.43495429e-01 3.43495429e-01 3.43495429e-01
      3.43495429e-01 2.29467109e-01 3.43495429e-01 2.57647187e-01
      3.63014430e-01 2.47918829e-01 3.63014430e-01 3.63014430e-01
      3.42546016e-01 3.03796291e-01 3.63014430e-01 3.63014430e-01
      4.24021930e-01 4.24021930e-01 4.06346917e-01 2.75947124e-01
      4.82759736e-02 1.24920554e-01 1.31854504e-01 4.24021930e-01
      4.24021930e-01 3.38324487e-01 3.38324487e-01 3.38324487e-01
      3.38324487e-01 3.38324487e-01 3.38324487e-01 3.38324487e-01
      3.38324487e-01 2.84450442e-01 2.70117044e-01 3.66542429e-01
      3.66542429e-01 3.66542429e-01 3.66542429e-01 2.03675196e-01
      3.66542429e-01 2.92672962e-01 3.52798730e-01 2.44938493e-01
      1.52525501e-02 5.10578193e-02 6.77441657e-02 1.35182917e-01
      4.09846395e-01 4.97112662e-01 4.97112662e-01 4.97112662e-01
      1.81263000e-01 9.91928279e-02 1.41806945e-01 4.88782138e-01
      4.88782138e-01 4.88782138e-01 2.55879372e-01 3.84857863e-01
      4.47192900e-02 1.69834271e-01 2.11313486e-01 5.15966117e-01
      5.15966117e-01 5.15966117e-01 2.97930539e-01 1.15849525e-01
      8.14820752e-02 1.17744170e-01 3.92090410e-01 3.92090410e-01
      3.92090410e-01 3.92090410e-01 3.92090410e-01 3.92090410e-01
      1.05361141e-01 8.91943574e-02 2.33702585e-01 3.71125251e-01
      3.71125251e-01 3.71125251e-01 3.71125251e-01 3.71125251e-01
      1.62597731e-01 2.27347195e-01 3.02925378e-01 3.71125251e-01
      3.16821754e-01 1.30698174e-01 2.58556396e-01 5.13108075e-01
      5.13108075e-01 4.28116143e-01 2.55930573e-01 1.59785047e-01
      9.84437168e-02 2.94313077e-02 4.44480181e-01 4.44480181e-01
      4.44480181e-01 4.44480181e-01 4.32517409e-01 1.21594809e-01
      4.28916737e-02 2.73330882e-02 3.81090492e-01 3.81090492e-01
      3.81090492e-01 3.81090492e-01 3.81090492e-01 1.19315982e-01
      2.58279424e-02 3.31526220e-01 3.81090492e-01 8.88460726e-02
      3.07511184e-02 2.81218112e-01 4.22864109e-01 4.22864109e-01
      4.22864109e-01 4.22864109e-01 4.22864109e-01 1.17399722e-01
      2.15197951e-01 3.90135109e-01 3.90135109e-01 3.90135109e-01
      3.90135109e-01 3.90135109e-01 3.58746320e-01 1.98750421e-01
      1.43403143e-01 3.48408014e-01 2.12473273e-01 3.48408014e-01
      3.48408014e-01 3.48408014e-01 3.48408014e-01 3.28589708e-01
      3.48408014e-01 3.39225680e-01 9.84561294e-02 1.90520242e-01
      4.35984462e-01 3.31529140e-01 4.46915299e-01 4.46915299e-01
      4.46915299e-01 2.20949963e-01 3.91365364e-02 3.61756861e-01
      3.61756861e-01 3.61756861e-01 3.61756861e-01 3.61756861e-01
      2.95336723e-01 2.01691836e-01 2.88572639e-01 3.61756861e-01
      3.42085123e-01 2.64148206e-01 3.28103960e-01 3.42085123e-01
      3.42085123e-01 3.42085123e-01 3.42085123e-01 3.42085123e-01
      3.42085123e-01 4.51230258e-02 3.40484530e-02 4.49700892e-01
      4.49700892e-01 4.49700892e-01 4.49700892e-01 2.79949129e-01
      3.03652912e-01 1.13192499e-01 3.61359090e-01 3.61359090e-01
      1.77234799e-01 2.25643128e-01 3.61359090e-01 3.61359090e-01
      3.61359090e-01 3.61359090e-01 3.61359090e-01 3.49002570e-01
      3.49002570e-01 3.49002570e-01 3.49002570e-01 3.49002570e-01
      3.49002570e-01 3.49002570e-01 1.48629516e-01 3.49002570e-01
      4.47565705e-01 5.26207149e-01 5.26207149e-01 4.67312872e-01
      9.24230963e-02 1.39872087e-02 1.80275682e-02 3.86753716e-02
      1.08177587e-01 6.60952449e-01 6.60952449e-01 2.33139902e-01
      4.35067639e-02 1.60969600e-01 5.86600639e-02 4.81096879e-02
      5.14539517e-02 1.70657203e-01 6.63753673e-02 2.11561918e-01
      4.31063712e-01 4.31063712e-01 4.31063712e-01 4.31063712e-01
      4.31063712e-01 1.25201598e-01 4.21296172e-02 4.18123811e-01
      3.85189205e-01 4.18123811e-01 4.18123811e-01 4.18123811e-01
      2.28221238e-01 2.53457308e-01 6.57231882e-02 1.65822983e-01
      3.50368470e-01 1.87460542e-01 3.50368470e-01 3.50368470e-01
      3.50368470e-01 3.19454968e-01 3.50368470e-01 3.50368470e-01
      3.50368470e-01 3.51293445e-01 3.51293445e-01 3.51293445e-01
      3.51293445e-01 3.51293445e-01 1.65668264e-01 3.51293445e-01
      3.24337214e-01 3.51293445e-01 4.37216848e-01 4.37216848e-01
      4.37216848e-01 3.51614416e-01 2.23885641e-01 1.19854927e-01
      1.56734288e-01 1.35314196e-01 4.37216848e-01 4.71803337e-01
      4.71803337e-01 1.36885315e-01 2.83756126e-02 1.11393332e-01
      1.06005572e-01 2.48405889e-01 4.71803337e-01 4.71803337e-01
      4.43693161e-01 4.43693161e-01 4.43693161e-01 4.07215148e-01
      3.44090521e-01 2.20174387e-01 1.35525078e-01 1.11520402e-01
      2.03652233e-01 3.44121069e-01 3.44121069e-01 3.44121069e-01
      3.44121069e-01 3.44121069e-01 3.44121069e-01 2.52458155e-01
      3.22321951e-01 3.44121069e-01 2.38624141e-01 3.80703568e-01
      3.80703568e-01 3.80703568e-01 3.80703568e-01 3.80703568e-01
      2.02873036e-01 3.23039114e-01 2.62806296e-01 4.21867669e-01
      8.13006014e-02 6.27670884e-02 7.88048133e-02 5.20495959e-02
      1.23193763e-01 4.21212643e-01 5.49759924e-01 5.49759924e-01
      3.90124440e-01 3.90124440e-01 3.90124440e-01 3.90124440e-01
      8.21831822e-02 2.60755479e-01 9.04016718e-02 3.90124440e-01
      3.90124440e-01 4.36134309e-01 4.36134309e-01 3.79666656e-01
      4.27486263e-02 4.03289422e-02 3.14996056e-02 2.93595076e-01
      4.36134309e-01 4.36134309e-01 4.14593905e-01 4.14593905e-01
      4.14593905e-01 2.87680477e-01 4.14593905e-01 3.20659608e-01
      1.68176055e-01 2.69306272e-01 1.48034453e-01 4.20211464e-01
      4.20211464e-01 4.20211464e-01 4.20211464e-01 4.20211464e-01
      2.00107291e-01 1.27367958e-01 1.39877126e-01 1.92568913e-01
      3.96729589e-01 2.27724090e-01 3.23523402e-01 2.88801610e-01
      3.96729589e-01 1.03679948e-01 3.96729589e-01 3.40261281e-01
      3.96729589e-01 5.58336139e-01 5.58336139e-01 1.81326449e-01
      8.64195377e-02 1.76701397e-02 2.43145283e-02 1.72080509e-02
      1.32889047e-01 5.58336139e-01 2.30761036e-01 1.77841246e-01
      2.27862611e-01 3.71644616e-01 3.79812092e-01 3.79812092e-01
      3.79812092e-01 3.79812092e-01 3.79812092e-01 4.62939352e-01
      4.62939352e-01 3.59656721e-01 3.10773775e-02 3.04595679e-02
      4.38559102e-03 8.28181356e-02 4.62939352e-01 4.62939352e-01
      3.90971661e-01 3.90971661e-01 3.90971661e-01 3.90971661e-01
      3.86585832e-01 8.14085305e-02 4.47738767e-02 2.71512836e-01
      3.90971661e-01 1.35703981e-01 3.14507961e-01 3.71428847e-01
      3.71428847e-01 3.71428847e-01 3.71428847e-01 3.71428847e-01
      2.26278767e-01 3.71428847e-01 3.61070424e-01 3.61070424e-01
      3.61070424e-01 3.61070424e-01 3.61070424e-01 1.79726422e-01
      3.43584329e-01 2.52605855e-01 3.61070424e-01 6.97655618e-01
      6.97655618e-01 3.64096239e-02 2.65907701e-02 3.81005965e-02
      3.44445184e-02 1.22194756e-02 2.55063977e-02 1.18819140e-01
      3.92700553e-01 3.92700553e-01 3.92700553e-01 9.20394883e-02
      3.92700553e-01 4.93472219e-02 2.44720399e-01 3.92700553e-01
      3.92700553e-01 4.74220991e-01 4.74220991e-01 2.58024246e-01
      1.36866570e-01 7.43128285e-02 2.74001569e-01 1.51665643e-01
      3.62899661e-01 4.74220991e-01 3.32778692e-01 3.32778692e-01
      3.32778692e-01 3.32778692e-01 3.32778692e-01 3.32778692e-01
      3.32778692e-01 3.32778692e-01 3.32778692e-01 3.38151127e-01
      3.38151127e-01 3.38151127e-01 3.38151127e-01 3.38151127e-01
      3.38151127e-01 3.38151127e-01 2.86097586e-01 3.38151127e-01
      3.96158934e-01 3.96158934e-01 3.96158934e-01 3.09597731e-01
      3.96158934e-01 2.26489291e-01 3.96158934e-01 1.27360895e-01
      2.19006538e-01 5.55474460e-01 5.55474460e-01 2.20030338e-01
      5.90813719e-02 7.30460323e-03 3.08822989e-02 5.65155968e-02
      1.12659648e-01 5.55474460e-01 1.27059504e-01 1.68270245e-01
      4.18474108e-01 4.18474108e-01 1.48379982e-01 4.18474108e-01
      4.18474108e-01 4.18474108e-01 2.31821314e-01 3.83201540e-01
      9.01709646e-02 1.04714438e-01 5.78125659e-03 1.01539912e-02
      2.17466190e-01 5.10403454e-01 5.10403454e-01 5.10403454e-01
      3.43116224e-01 2.33969852e-01 3.43116224e-01 3.43116224e-01
      3.43116224e-01 3.43116224e-01 3.43116224e-01 3.43116224e-01
      3.43116224e-01 3.52439463e-01 1.79996923e-01 3.52439463e-01
      3.52439463e-01 3.52439463e-01 3.52439463e-01 3.07546616e-01
      3.52439463e-01 3.52439463e-01 3.65699261e-01 3.65699261e-01
      3.13262343e-01 1.32151589e-01 2.79880881e-01 3.65699261e-01
      3.65699261e-01 3.65699261e-01 3.65699261e-01 3.76554698e-01
      3.76554698e-01 2.93493569e-01 1.34898320e-01 2.02832893e-01
      3.76554698e-01 3.76554698e-01 3.76554698e-01 3.76554698e-01
      4.16179419e-01 4.16179419e-01 1.48147553e-01 3.07096869e-01
      9.60578769e-02 6.58238530e-02 4.16179419e-01 4.16179419e-01
      4.16179419e-01 9.45285484e-02 2.17370093e-02 1.53539106e-02
      2.83836573e-01 2.92329311e-01 5.02183199e-01 5.02183199e-01
      5.02183199e-01 2.50513524e-01 1.65475816e-01 2.26987293e-03
      4.14631777e-02 6.93535954e-02 1.34969220e-01 5.16680717e-01
      5.62288582e-01 5.62288582e-01 2.07258224e-01 1.09728970e-01
      2.69164264e-01 4.14019078e-01 4.14019078e-01 4.14019078e-01
      4.14019078e-01 4.14019078e-01 1.68690979e-01 1.60806790e-01
      3.43643337e-01 3.43643337e-01 3.43643337e-01 3.43643337e-01
      3.43643337e-01 3.43643337e-01 3.43643337e-01 2.27685332e-01
      3.43643337e-01 4.98949975e-01 4.98949975e-01 1.49547711e-01
      4.21786577e-01 9.08498466e-02 2.11099125e-02 1.21135637e-01
      1.56594977e-01 4.98949975e-01 3.48573059e-01 3.48573059e-01
      2.36098111e-01 3.38433564e-01 3.11799049e-01 3.48573059e-01
      3.48573059e-01 3.48573059e-01 3.48573059e-01 3.21276397e-01
      9.47209448e-02 1.65520921e-01 3.20899516e-01 2.14124203e-01
      4.20531124e-01 4.20531124e-01 4.20531124e-01 4.20531124e-01
      1.75108120e-01 1.72096744e-01 1.38539057e-02 1.12884380e-01
      2.89482236e-01 6.65691346e-02 5.27032673e-01 5.27032673e-01
      5.27032673e-01 3.55011709e-02 1.30819738e-01 3.86893228e-02
      2.69583277e-02 1.18309312e-01 2.63660811e-02 6.68781817e-01
      6.68781817e-01 2.51982689e-01 3.92409116e-01 3.92409116e-01
      2.60837793e-01 2.87854940e-01 3.92409116e-01 3.92409116e-01
      1.94440752e-01 1.93522990e-01 3.92409116e-01 5.34146965e-01
      5.34146965e-01 7.88642541e-02 3.94109264e-02 2.42628396e-01
      1.82383373e-01 1.03475526e-01 1.67673588e-01 5.34146965e-01
      3.33304733e-01 3.33304733e-01 3.28532159e-01 3.33304733e-01
      3.33304733e-01 3.33304733e-01 3.33304733e-01 3.33304733e-01
      3.33304733e-01 4.47800130e-01 2.19158232e-01 1.84729785e-01
      4.47800130e-01 4.47800130e-01 3.69068950e-01 2.29244992e-01
      1.85036957e-01 2.97981292e-01 2.40144014e-01 7.26060122e-02
      5.60562983e-02 5.87109178e-02 6.63414970e-02 2.74426371e-01
      5.30866385e-01 5.30866385e-01 5.30866385e-01 5.41619837e-01
      5.41619837e-01 5.41619837e-01 2.63246149e-01 1.04195997e-01
      1.39754461e-02 4.50331531e-03 8.65545198e-02 1.63316846e-01
      6.19402409e-01 6.19402409e-01 3.28179538e-01 2.28352740e-01
      1.63054958e-01 1.32278934e-01 1.36960708e-02 5.43146301e-03
      1.49493903e-01 4.98527288e-01 4.98527288e-01 3.02909851e-01
      4.52651642e-02 3.04064929e-01 9.73066390e-02 5.06140366e-02
      2.26149023e-01 4.98527288e-01 1.03266373e-01 1.25859484e-01
      4.63590443e-01 4.63590443e-01 4.63590443e-01 4.63590443e-01
      3.24049294e-01 3.64479497e-02 5.35188317e-02 2.82959431e-01
      3.64962637e-01 4.06145185e-01 4.06145185e-01 4.06145185e-01
      4.06145185e-01 1.81858286e-01 2.04974618e-02 2.98949003e-01
      1.43733561e-01 4.09582406e-01 1.90816924e-01 4.12251383e-01
      4.12251383e-01 4.12251383e-01 4.12251383e-01 7.14791715e-02
      2.93495238e-01 4.07121181e-01 4.72852319e-01 4.72852319e-01
      4.72852319e-01 3.64368498e-01 8.82599130e-02 7.42353573e-02
      5.76619245e-02 9.68060791e-02 5.82262687e-02 3.42386335e-01
      2.58905262e-01 5.10471582e-01 5.10471582e-01 5.10471582e-01
      1.56458646e-01 7.62303546e-03 3.11477538e-02 3.39292943e-01
      2.23707601e-01 2.96601623e-01 4.71719980e-01 4.71719980e-01
      4.71719980e-01 1.67952687e-01 1.30664572e-01 1.71203122e-01
      1.46738112e-01 6.66325167e-02 5.19279480e-01 5.19279480e-01
      5.19279480e-01 7.56360963e-02 2.64156759e-01 1.61519255e-02
      2.90048450e-01 3.64914864e-01 3.67078274e-01 3.67078274e-01
      3.67078274e-01 3.67078274e-01 3.67078274e-01 3.67078274e-01
      1.54716223e-01 1.75368130e-01 3.96227658e-01 3.92526180e-01
      3.96227658e-01 3.96227658e-01 3.96227658e-01 8.43770728e-02
      1.90567091e-01 1.16395168e-01 3.96227658e-01 3.91009897e-01
      3.91009897e-01 3.49854648e-01 3.91009897e-01 3.91009897e-01
      3.16367224e-02 7.38522410e-02 3.20619226e-01 3.91009897e-01</_>
    <_>
      3.76363486e-01 1.24781825e-01 2.11236984e-01 2.93515861e-01
      3.76363486e-01 3.76363486e-01 3.76363486e-01 3.76363486e-01
      3.76363486e-01 4.08632249e-01 4.08632249e-01 3.08342099e-01
      4.08632249e-01 3.91179502e-01 6.79974481e-02 2.37824604e-01
      1.36806697e-01 4.08632249e-01 2.44110093e-01 4.47910547e-01
      4.47910547e-01 4.23925787e-01 4.47910547e-01 1.48498714e-01
      1.51435897e-01 2.19559878e-01 2.47305989e-01 7.68926218e-02
      9.34933424e-02 1.91031694e-01 3.53838891e-01 4.04872030e-01
      4.04872030e-01 4.04872030e-01 4.04872030e-01 4.04872030e-01
      4.00073767e-01 4.00073767e-01 4.00073767e-01 4.00073767e-01
      4.00073767e-01 4.00073767e-01 1.03512362e-01 1.29876584e-01
      8.98128599e-02 5.63046157e-01 2.70257294e-01 3.24621871e-02
      6.69897185e-04 6.98145293e-03 5.56702465e-02 1.15017205e-01
      5.19485891e-01 5.63046157e-01 3.99319589e-01 3.99319589e-01
      2.25217357e-01 2.47792229e-01 3.99319589e-01 2.72184372e-01
      3.99319589e-01 1.11901961e-01 3.99319589e-01 3.32778692e-01
      3.32778692e-01 3.32778692e-01 3.32778692e-01 3.32778692e-01
      3.32778692e-01 3.32778692e-01 3.32778692e-01 3.32778692e-01
      3.61652017e-01 3.61652017e-01 3.61652017e-01 2.56452531e-01
      1.22774318e-01 3.61652017e-01 3.61652017e-01 3.61652017e-01
      3.61652017e-01 1.20847665e-01 2.08310321e-01 3.02222341e-01
      2.56104231e-01 2.54104495e-01 4.23166245e-01 4.23166245e-01
      4.23166245e-01 4.23166245e-01 3.55508089e-01 3.55508089e-01
      2.31225744e-01 3.55508089e-01 3.55508089e-01 3.00670266e-01
      3.07024717e-01 3.55508089e-01 3.55508089e-01 4.22366589e-01
      2.98954576e-01 3.39087814e-01 1.83153480e-01 3.54447216e-01
      2.19721571e-01 2.20885381e-01 4.22366589e-01 4.22366589e-01
      3.83444011e-01 1.10224009e-01 1.11063287e-01 3.54745001e-01
      3.32707614e-01 3.83444011e-01 3.83444011e-01 3.83444011e-01
      3.83444011e-01 3.86795372e-01 3.86795372e-01 3.86795372e-01
      3.86795372e-01 2.20875725e-01 1.40295908e-01 1.73213094e-01
      3.86795372e-01 3.86795372e-01 3.93449247e-01 3.93449247e-01
      3.93449247e-01 3.93449247e-01 2.21070811e-01 5.78745641e-02
      1.22612298e-01 3.93449247e-01 3.93449247e-01 1.65937811e-01
      3.72442663e-01 3.72442663e-01 3.72442663e-01 3.51531029e-01
      2.23860204e-01 3.72442663e-01 3.72442663e-01 3.18572640e-01
      3.75208519e-02 4.43225168e-02 2.87660602e-02 1.61101416e-01
      1.72375545e-01 5.56911349e-01 5.56911349e-01 5.56911349e-01
      6.41966909e-02 4.82242584e-01 8.63455459e-02 2.38912161e-02
      8.51023570e-02 5.26039191e-02 2.16600284e-01 4.82242584e-01
      4.82242584e-01 4.82242584e-01 5.74452817e-01 4.28205520e-01
      1.03368372e-01 1.23041598e-02 2.02820942e-01 2.18825653e-01
      1.65536612e-01 1.53792277e-01 5.74452817e-01 6.26999021e-01
      6.26999021e-01 4.20129508e-01 4.78947945e-02 2.68354733e-02
      6.87737809e-03 3.13050039e-02 6.35336339e-02 1.51319623e-01
      2.16373950e-01 3.32563743e-02 6.46464247e-03 1.66731782e-03
      9.21096839e-03 3.71532030e-02 8.46635550e-02 6.84312522e-01
      6.84312522e-01 1.30302265e-01 2.23650746e-02 2.31591597e-01
      1.94541559e-01 1.70330033e-01 1.60580710e-01 9.56046432e-02
      6.40587986e-01 6.40587986e-01 4.46434259e-01 4.46434259e-01
      1.70087114e-01 1.99313521e-01 8.36854503e-02 1.09662943e-01
      4.46434259e-01 3.32628369e-01 4.46434259e-01 3.95773202e-01
      3.95773202e-01 3.95773202e-01 3.95773202e-01 3.95773202e-01
      2.16487989e-01 9.67342630e-02 1.74732017e-03 3.95773202e-01
      5.03095090e-01 4.65956852e-02 2.43958402e-02 3.73453870e-02
      1.03591271e-01 1.22361839e-01 5.03095090e-01 4.53648597e-01
      5.03095090e-01 5.40716588e-01 5.40716588e-01 2.68196255e-01
      9.33241323e-02 1.74822696e-02 9.16630030e-02 1.11742401e-02
      1.67348430e-01 5.40716588e-01 5.45030534e-01 1.62637085e-01
      2.53399871e-02 1.60119906e-02 8.16198997e-03 1.45446971e-01
      2.27480918e-01 5.46427786e-01 5.46427786e-01 7.00692475e-01
      8.34120736e-02 1.29648987e-02 3.03815324e-02 1.85679737e-02
      2.39872169e-02 9.04623885e-03 4.48873602e-02 7.00692475e-01
      4.96783018e-01 1.45676592e-02 5.45139685e-02 2.87623256e-02
      6.14837930e-02 8.56584404e-03 4.96783018e-01 4.96783018e-01
      4.96783018e-01 4.12411541e-01 4.12411541e-01 2.93916196e-01
      9.40551311e-02 3.44759375e-01 2.33640149e-01 2.71204501e-01
      3.78680050e-01 4.12411541e-01 5.56030929e-01 5.56030929e-01
      7.22010210e-02 1.74844027e-01 3.90711159e-01 2.19541296e-01
      1.38796970e-01 3.28855842e-01 1.09813288e-01 5.48976600e-01
      5.48976600e-01 4.60480571e-01 8.26975051e-03 8.64710473e-03
      4.28225212e-02 3.38558629e-02 9.18654054e-02 4.10076231e-01
      5.70212066e-01 7.39709958e-02 1.96639355e-02 1.39189223e-02
      3.16514894e-02 9.05760601e-02 6.01895377e-02 5.70212066e-01
      5.70212066e-01 5.75688303e-01 5.75688303e-01 0. 0. 0. 0.
      1.29052380e-04 6.68798049e-04 5.75688303e-01 5.67771494e-01
      1.25650495e-01 7.17986822e-02 6.02326496e-03 7.29001779e-03 0.
      7.87687227e-02 5.67771494e-01 5.67771494e-01 6.76405847e-01
      1.22863896e-01 6.00229651e-02 2.73122266e-02 2.44481117e-02
      3.99066508e-02 7.72484243e-02 2.24935800e-01 6.76405847e-01
      5.22205949e-01 5.22205949e-01 4.18114156e-01 2.74063706e-01
      2.52849519e-01 1.28510982e-01 4.10013869e-02 2.58453012e-01
      2.24787191e-01 5.55008054e-01 5.55008054e-01 5.55008054e-01
      1.41130581e-01 1.82497641e-03 3.65706868e-02 3.66398096e-02
      6.33868724e-02 2.09133998e-01 5.08730471e-01 4.45064694e-01
      1.55407526e-02 0. 2.96992548e-02 2.42896867e-03 1.38878003e-01
      5.08730471e-01 5.08730471e-01 6.90112352e-01 1.83377881e-02
      6.57907105e-04 0. 0. 0. 0. 2.00658634e-01 6.90112352e-01
      5.11587322e-01 4.80084985e-01 1.17834665e-01 4.05390328e-03
      8.04044157e-02 7.83463195e-02 1.29352316e-01 4.44667846e-01
      5.11587322e-01 4.78908360e-01 4.78908360e-01 3.99267375e-01
      1.27083719e-01 2.99596399e-01 7.56451190e-02 5.11874482e-02
      1.83008060e-01 4.78908360e-01 6.21951044e-01 3.18560600e-01
      6.22234233e-02 9.33913141e-02 1.56109586e-01 9.55950841e-02
      1.66154921e-01 2.12022111e-01 6.21951044e-01 4.94802713e-01
      4.94802713e-01 2.79442757e-01 1.89396709e-01 5.25127910e-02
      1.31123632e-01 3.12687457e-01 1.69955984e-01 4.94802713e-01
      5.40465891e-01 3.91683459e-01 9.82265323e-02 5.67386532e-03
      9.41650127e-04 1.09199109e-02 2.26296782e-02 4.96656030e-01
      5.40465891e-01 6.81523800e-01 1.42798021e-01 3.75041105e-02
      1.08676642e-01 6.61951154e-02 0. 2.31940243e-02 1.60371304e-01
      6.81523800e-01 6.47605658e-01 1.89573601e-01 7.94890821e-02
      7.31765805e-03 5.63142775e-03 2.23036446e-02 2.80070156e-02
      3.33353341e-01 6.47605658e-01 5.24345100e-01 3.67468923e-01
      9.09994021e-02 3.45713831e-02 8.30264837e-02 4.07073870e-02
      1.29961759e-01 5.24345100e-01 5.24345100e-01 3.80845964e-01
      1.37851775e-01 2.25243330e-01 2.37056166e-01 3.80845964e-01
      3.80845964e-01 3.80845964e-01 3.80845964e-01 3.80845964e-01
      6.03351414e-01 1.14657141e-01 8.85986015e-02 4.39357236e-02
      2.22231038e-02 1.50794983e-02 3.88332419e-02 4.90667135e-01
      6.03351414e-01 4.47662510e-02 2.74652429e-02 8.05515274e-02
      9.08537656e-02 4.66317981e-01 4.66317981e-01 4.66317981e-01
      4.53274727e-01 3.46447051e-01 4.01718825e-01 1.43858075e-01
      1.19736440e-01 2.40093723e-01 4.01718825e-01 4.01718825e-01
      4.01718825e-01 3.10515374e-01 4.01718825e-01 3.48072529e-01
      3.48072529e-01 3.48072529e-01 3.48072529e-01 3.48072529e-01
      3.48072529e-01 3.48072529e-01 3.12575936e-01 2.25249320e-01
      4.46538687e-01 2.51714766e-01 1.64470896e-01 1.04554482e-01
      4.21714365e-01 1.78467646e-01 2.93790460e-01 4.46538687e-01
      4.46538687e-01 9.06469971e-02 4.94202152e-02 9.84503254e-02
      1.17109574e-01 4.49780136e-01 3.90169412e-01 4.49780136e-01
      4.49780136e-01 4.49780136e-01 3.94929975e-01 3.94929975e-01
      3.94929975e-01 1.24358781e-01 1.40836135e-01 1.57913327e-01
      3.94929975e-01 3.94929975e-01 3.94929975e-01 2.01736704e-01
      3.36646065e-02 2.80879624e-02 2.77144372e-01 5.50160885e-01
      5.50160885e-01 1.24222845e-01 3.55701476e-01 3.57446641e-01
      2.34028280e-01 2.88075179e-01 2.17445880e-01 1.96688026e-01
      1.79226294e-01 4.30074513e-01 4.30074513e-01 4.30074513e-01
      4.30074513e-01 3.33694667e-01 3.33694667e-01 3.33694667e-01
      3.25343966e-01 3.33694667e-01 3.33694667e-01 3.33694667e-01
      3.33694667e-01 3.33694667e-01 1.84550866e-01 3.47619385e-01
      3.41457129e-01 3.47619385e-01 3.47619385e-01 3.47619385e-01
      3.47619385e-01 3.47619385e-01 3.47619385e-01 2.01409962e-02
      1.03988349e-01 1.15269534e-01 3.57418478e-01 5.76383829e-01
      5.76383829e-01 4.13831353e-01 7.93555900e-02 0. 4.11406904e-01
      4.11406904e-01 4.11406904e-01 4.11406904e-01 4.11406904e-01
      1.27890006e-01 8.27300474e-02 3.02999765e-01 1.86019078e-01
      4.12795693e-01 4.12795693e-01 4.12795693e-01 4.12795693e-01
      2.22782701e-01 9.52174738e-02 9.37213600e-02 2.76392341e-01
      4.12795693e-01 3.32576722e-01 4.37265068e-01 3.01242262e-01
      5.37503995e-02 1.39928177e-01 8.37020949e-02 4.37265068e-01
      4.37265068e-01 4.37265068e-01 3.50901127e-01 3.50901127e-01
      3.50901127e-01 3.50901127e-01 2.66515017e-01 3.34089190e-01
      2.73968428e-01 3.50901127e-01 3.50901127e-01 2.98799813e-01
      4.53803748e-01 4.53803748e-01 4.53803748e-01 4.53803748e-01
      1.37640730e-01 1.45228729e-01 2.86922902e-02 2.03898877e-01
      3.98382902e-01 4.11340088e-01 4.11340088e-01 4.11340088e-01
      4.11340088e-01 3.46968472e-01 8.95553678e-02 8.28439444e-02
      1.58457085e-01 6.10723794e-01 6.10723794e-01 4.21446502e-01
      8.49203244e-02 7.12335259e-02 2.06766017e-02 1.98163707e-02
      3.49229155e-03 2.39164695e-01 3.75554085e-01 4.90513772e-01
      4.90513772e-01 4.90513772e-01 3.35543394e-01 1.32720664e-01
      1.86427906e-02 1.49126295e-02 3.84021178e-02 3.40484470e-01
      3.40484470e-01 3.40484470e-01 3.40484470e-01 2.62984216e-01
      3.40484470e-01 3.40484470e-01 3.40484470e-01 3.40484470e-01
      3.47534508e-01 3.47534508e-01 3.47534508e-01 3.47534508e-01
      2.17385903e-01 3.38177741e-01 3.47534508e-01 3.32002312e-01
      3.47534508e-01 2.08930165e-01 4.04693753e-01 4.04693753e-01
      3.11401129e-01 4.04693753e-01 4.04693753e-01 4.04693753e-01
      1.78909793e-01 6.66405708e-02 4.70361233e-01 4.70361233e-01
      1.30877033e-01 4.45546091e-01 1.90260351e-01 1.47737056e-01
      1.05686607e-02 2.40428254e-01 4.70361233e-01 5.26189327e-01
      5.26189327e-01 3.74912947e-01 8.80364105e-02 1.83902398e-01
      1.95585787e-02 7.66170993e-02 6.10258915e-02 4.98886377e-01
      3.01176906e-02 1.05137967e-01 4.54159647e-01 4.54159647e-01
      4.54159647e-01 4.54159647e-01 3.60678434e-01 1.65595427e-01
      3.07867676e-02 3.77002746e-01 2.02255771e-01 1.99620292e-01
      3.77002746e-01 3.77002746e-01 3.77002746e-01 2.50382841e-01
      3.77002746e-01 3.77002746e-01 3.67146552e-01 3.67146552e-01
      3.67146552e-01 2.45208830e-01 2.29942113e-01 2.73041785e-01
      3.67146552e-01 3.67146552e-01 3.67146552e-01 1.34617522e-01
      2.95252889e-01 3.84198189e-01 3.84198189e-01 3.84198189e-01
      2.40237594e-01 3.84198189e-01 3.84198189e-01 3.08399290e-01
      4.87666219e-01 4.87666219e-01 4.87666219e-01 9.87583324e-02
      7.24819973e-02 2.21712445e-03 1.43235967e-01 3.59494239e-01
      3.41920584e-01 4.56308514e-01 4.56308514e-01 4.56308514e-01
      2.67140180e-01 2.86382049e-01 2.69446105e-01 2.00759798e-01
      1.74906656e-01 2.71869779e-01 3.97892326e-01 5.48641868e-02
      1.16680965e-01 3.21647108e-01 4.05954987e-01 4.05954987e-01
      4.05954987e-01 3.64569247e-01 3.00392717e-01 2.11994871e-01
      3.45496058e-01 3.45496058e-01 3.40636939e-01 3.45496058e-01
      3.45496058e-01 3.45496058e-01 3.45496058e-01 3.45496058e-01
      5.09437807e-02 5.71242496e-02 8.92354995e-02 7.14699775e-02
      5.15821055e-02 1.71446115e-01 4.37625498e-01 6.12935662e-01
      6.12935662e-01 3.65385294e-01 1.76491037e-01 3.65385294e-01
      3.65385294e-01 3.65385294e-01 3.18998665e-01 3.23598534e-01
      3.01980376e-01 3.65385294e-01 1.34653509e-01 3.49695444e-01
      2.45780662e-01 3.69064271e-01 3.69064271e-01 3.69064271e-01
      3.69064271e-01 3.69064271e-01 3.38295728e-01 1.55120507e-01
      8.13822076e-02 1.90734550e-01 1.68510333e-01 1.58037961e-01
      5.26249349e-01 5.26249349e-01 5.26249349e-01 2.08548635e-01
      4.08190161e-01 4.08190161e-01 4.08190161e-01 4.08190161e-01
      4.08190161e-01 1.87250018e-01 2.48313665e-01 5.84816933e-02
      2.50367761e-01 3.43547463e-01 2.72075832e-01 3.43547463e-01
      3.43547463e-01 3.43547463e-01 3.43547463e-01 3.43547463e-01
      3.43547463e-01 3.10432315e-01 3.95073146e-01 3.95073146e-01
      3.95073146e-01 3.35597664e-01 2.14736119e-01 5.93010634e-02
      3.79108280e-01 2.56407678e-01 3.95073146e-01 2.03649513e-02
      6.60244748e-02 1.20160341e-01 7.24876896e-02 6.12557650e-01
      6.12557650e-01 4.59283561e-01 8.62680078e-02 2.40731835e-02
      1.09431460e-01 8.31818730e-02 4.42004427e-02 4.25881237e-01
      4.74850178e-01 4.74850178e-01 4.74850178e-01 3.08125257e-01
      1.47122294e-01 2.93812931e-01 4.17531729e-01 4.18487400e-01
      4.18487400e-01 4.18487400e-01 4.18487400e-01 1.27615258e-01
      2.11265981e-02 1.33797526e-01 3.44039440e-01 3.44039440e-01
      3.44039440e-01 3.44039440e-01 3.44039440e-01 3.44039440e-01
      3.44039440e-01 3.44039440e-01 2.22839519e-01 1.72809750e-01
      2.75363654e-01 3.96102399e-01 2.88890123e-01 4.41772789e-01
      4.41772789e-01 4.41772789e-01 1.91709250e-01 1.65232986e-01
      1.06279366e-01 2.06299484e-01 1.81698278e-01 1.88278362e-01
      4.44760054e-01 2.86345184e-01 4.44760054e-01 4.44760054e-01
      4.44760054e-01 3.17802951e-02 4.01398493e-03 5.60263336e-01
      5.60263336e-01 4.79796916e-01 3.45188797e-01 1.06309108e-01
      6.18829988e-02 3.31304148e-02</_>
    <_>
      1.14280559e-01 2.97797471e-01 3.28231692e-01 7.99533203e-02
      4.74969476e-01 4.74969476e-01 4.74969476e-01 2.21744537e-01
      2.31139198e-01 1.17409326e-01 3.19105969e-03 1.14612065e-01
      3.74188900e-01 4.48272437e-01 4.48272437e-01 4.48272437e-01
      3.71559709e-01 2.96096087e-01 1.75522253e-01 3.57608438e-01
      3.96684736e-01 3.96684736e-01 3.96684736e-01 3.96684736e-01
      3.96684736e-01 2.08244532e-01 8.47674012e-02 1.71945363e-01
      1.09169409e-01 3.67040068e-01 4.49618876e-01 4.49618876e-01
      4.49618876e-01 4.25316155e-01 1.51572749e-01 9.46992189e-02
      3.75444710e-01 2.48196140e-01 2.65913129e-01 1.34854034e-01
      3.75444710e-01 3.75444710e-01 3.75444710e-01 3.75444710e-01
      3.75444710e-01 4.02691931e-01 4.02691931e-01 2.75602758e-01
      2.45726913e-01 1.53275490e-01 1.59188762e-01 4.02691931e-01
      4.02691931e-01 4.02691931e-01 2.10151285e-01 1.10774972e-01
      8.91295373e-02 1.41375005e-01 4.52838629e-01 3.63151044e-01
      4.05023664e-01 4.52838629e-01 4.52838629e-01 4.07129675e-01
      6.29358515e-02 1.31241158e-01 5.69395609e-02 2.54131079e-01
      4.45742249e-01 3.02386135e-01 4.74537820e-01 4.74537820e-01
      3.87892812e-01 3.87892812e-01 3.77804905e-01 3.87892812e-01
      1.91804245e-01 1.81227252e-01 1.77346870e-01 3.87892812e-01
      3.87892812e-01 2.87314832e-01 3.79156440e-01 3.10124665e-01
      2.48443380e-01 3.79156440e-01 3.79156440e-01 3.79156440e-01
      3.79156440e-01 1.92256734e-01 3.10460657e-01 1.26556128e-01
      1.62192971e-01 3.78046364e-01 3.78046364e-01 3.78046364e-01
      3.78046364e-01 3.78046364e-01 3.78046364e-01 1.57604262e-01
      7.65048116e-02 1.01478249e-01 1.69185609e-01 2.75817454e-01
      1.14583887e-01 5.27860403e-01 5.27860403e-01 5.27860403e-01
      3.57678384e-01 2.98487563e-02 2.43221283e-01 3.46718311e-01
      3.70971411e-01 3.70971411e-01 3.70971411e-01 3.70971411e-01
      3.70971411e-01 8.44354108e-02 8.39036182e-02 5.57489730e-02
      1.21728726e-01 1.12782381e-01 5.87833412e-02 1.86482072e-02
      6.87212408e-01 6.87212408e-01 3.64287704e-01 3.64287704e-01
      2.73133188e-01 3.64287704e-01 3.64287704e-01 1.73462525e-01
      3.08927506e-01 3.64287704e-01 3.64287704e-01 3.92064214e-01
      3.92064214e-01 3.92064214e-01 3.55808109e-01 1.39602825e-01
      1.99242741e-01 3.92064214e-01 2.04268068e-01 3.92064214e-01
      2.06650347e-01 1.34192899e-01 1.66746691e-01 3.66683960e-01
      4.15478438e-01 2.87030578e-01 4.15478438e-01 4.15478438e-01
      4.15478438e-01 3.63010168e-01 1.04660138e-01 2.50967562e-01
      3.63010168e-01 3.63010168e-01 3.63010168e-01 3.63010168e-01
      3.63010168e-01 3.63010168e-01 1.95873994e-02 1.05535038e-01
      3.98192145e-02 2.43942335e-01 4.74562168e-01 4.74562168e-01
      4.74562168e-01 4.74562168e-01 1.47676408e-01 3.63950521e-01
      3.63950521e-01 3.63950521e-01 3.63950521e-01 2.43829519e-01
      3.63950521e-01 3.17769140e-01 2.02913672e-01 3.63950521e-01
      3.46405923e-01 1.91213191e-01 3.46405923e-01 3.46405923e-01
      3.46405923e-01 3.46405923e-01 3.46405923e-01 3.46405923e-01
      3.46405923e-01 3.65870118e-01 1.78862825e-01 1.65305838e-01
      3.65870118e-01 3.65870118e-01 3.65870118e-01 3.65870118e-01
      3.65870118e-01 3.65870118e-01 7.77839944e-02 5.05885482e-02
      1.15663625e-01 1.87323183e-01 5.29855907e-01 5.29855907e-01
      5.29855907e-01 2.79286563e-01 1.31864145e-01 5.37470952e-02
      5.71327619e-02 6.58331215e-02 2.45405912e-01 4.63406742e-01
      5.42330861e-01 5.42330861e-01 2.79149026e-01 2.07262009e-01
      3.69698226e-01 3.69698226e-01 2.22432956e-01 3.69698226e-01
      3.69698226e-01 3.69698226e-01 2.05929846e-01 3.69698226e-01
      2.90451914e-01 5.60675561e-01 1.10148907e-01 3.96178216e-02
      5.79480082e-02 1.35768577e-01 1.00711741e-01 7.54552260e-02
      5.60675561e-01 5.60675561e-01 3.37233275e-01 3.37233275e-01
      3.37233275e-01 2.94652998e-01 3.37233275e-01 3.37233275e-01
      3.37233275e-01 3.37233275e-01 3.37233275e-01 3.69814306e-01
      8.90503302e-02 3.69814306e-01 3.69814306e-01 3.69814306e-01
      3.69814306e-01 3.69814306e-01 1.76173300e-01 3.69814306e-01
      4.48724478e-01 4.48724478e-01 2.51441687e-01 7.04032630e-02
      7.90136382e-02 4.32847105e-02 3.37352723e-01 4.48724478e-01
      4.48724478e-01 4.34921354e-01 1.49987966e-01 4.52050269e-02
      8.02569613e-02 1.37446582e-01 4.34921354e-01 4.34921354e-01
      4.34921354e-01 4.34921354e-01 2.78428942e-01 2.53149599e-01
      2.59273291e-01 4.27468032e-01 4.27468032e-01 4.27468032e-01
      3.80973697e-01 2.19024226e-01 2.13542998e-01 5.07743180e-01
      4.54220563e-01 4.31117341e-02 5.55006228e-03 4.69964434e-04
      1.59034308e-03 1.15374275e-01 5.07743180e-01 5.07743180e-01
      3.44394326e-01 3.44394326e-01 3.44394326e-01 3.44394326e-01
      3.44394326e-01 3.44394326e-01 3.44394326e-01 2.28391141e-01
      3.37852538e-01 4.00917500e-01 1.35567591e-01 2.41220787e-01
      4.00917500e-01 4.00917500e-01 4.00917500e-01 2.75101066e-01
      2.36596152e-01 3.80566984e-01 3.96093518e-01 3.64766806e-01
      1.68489560e-01 1.40087172e-01 1.74712792e-01 3.96093518e-01
      3.96093518e-01 3.96093518e-01 3.96093518e-01 3.70222598e-01
      3.70222598e-01 3.70222598e-01 3.70222598e-01 3.70222598e-01
      2.89675355e-01 2.98293740e-01 3.19660828e-02 3.70222598e-01
      3.86471421e-01 3.40973407e-01 3.90489429e-01 3.90489429e-01
      3.90489429e-01 3.90489429e-01 2.70451963e-01 1.36515990e-01
      1.69608712e-01 5.58603227e-01 5.58603227e-01 1.89060867e-01
      8.31944421e-02 7.71208107e-02 4.34693247e-02 4.44068573e-02
      7.63844475e-02 5.58603227e-01 3.69649172e-01 1.02680258e-01
      3.45683038e-01 1.90430552e-01 3.72380286e-01 3.72380286e-01
      3.72380286e-01 3.72380286e-01 3.72380286e-01 3.51023555e-01
      3.51023555e-01 3.51023555e-01 3.51023555e-01 3.51023555e-01
      3.51023555e-01 3.51023555e-01 3.51023555e-01 1.03695065e-01
      4.04692143e-01 4.04692143e-01 4.04692143e-01 1.59583017e-01
      3.22484672e-01 2.58291841e-01 1.19789995e-01 3.61008197e-01
      4.04692143e-01 3.62225682e-01 3.62225682e-01 3.62225682e-01
      3.62225682e-01 3.62225682e-01 3.62225682e-01 1.22703396e-01
      2.50744253e-01 3.62225682e-01 4.29982424e-01 2.61016548e-01
      2.56331414e-01 4.29982424e-01 4.29982424e-01 4.29982424e-01
      3.29857171e-01 7.56027028e-02 8.83640423e-02 3.70479584e-01
      3.70479584e-01 3.70479584e-01 3.70479584e-01 3.70479584e-01
      2.22860023e-01 3.70479584e-01 1.25894845e-01 3.27493221e-01
      3.79265606e-01 4.21979696e-01 1.18934838e-02 8.02681595e-02
      7.09422767e-01 7.69018084e-02 3.31698954e-01 1.34197980e-01
      1.64915264e-01 3.87252361e-01 3.87252361e-01 3.87252361e-01
      3.87252361e-01 3.87252361e-01 6.20895438e-02 2.73842830e-02
      3.02886009e-01 3.87252361e-01 4.81078774e-01 2.44158968e-01
      2.24817663e-01 1.33480430e-01 2.48434529e-01 3.84709924e-01
      1.68773711e-01 4.07604992e-01 4.81078774e-01 4.94536400e-01
      1.55752629e-01 1.63167760e-01 3.04056466e-01 2.55976737e-01
      1.39962658e-01 1.81425914e-01 4.94536400e-01 4.94536400e-01
      5.13416231e-01 5.13416231e-01 1.71502218e-01 2.04027444e-01
      5.13416231e-01 1.07894592e-01 2.35182866e-01 1.83100000e-01
      1.80460379e-01 4.93135661e-01 1.89256936e-01 2.85857826e-01
      2.51032934e-02 3.83658737e-01 3.62831742e-01 2.95161933e-01
      1.56795189e-01 4.93135661e-01 8.23327601e-02 2.49267042e-01
      4.14729059e-01 1.29105002e-01 6.51805520e-01 0. 4.88228321e-01
      2.58425623e-01 7.68797770e-02 3.57757598e-01 3.57757598e-01
      3.57757598e-01 2.79837102e-01 3.57757598e-01 3.04600894e-01
      3.57757598e-01 2.39566848e-01 3.57757598e-01 4.78084773e-01
      4.78084773e-01 1.92770764e-01 1.49399698e-01 2.87351072e-01
      5.36938757e-02 3.32197547e-01 2.32895285e-01 4.78084773e-01
      5.56221008e-01 4.93735522e-01 1.57630488e-01 1.09061457e-01
      2.64487922e-01 6.18943945e-02 1.13458924e-01 9.22378674e-02
      5.56221008e-01 3.37889671e-01 3.37889671e-01 3.37889671e-01
      3.37889671e-01 3.37889671e-01 3.37889671e-01 3.37889671e-01
      2.88562894e-01 3.37889671e-01 6.24695361e-01 4.21738267e-01
      1.29312247e-01 7.18072131e-02 7.42660761e-02 0. 1.03604933e-02
      8.89411867e-02 6.24695361e-01 4.69230652e-01 4.69230652e-01
      4.69230652e-01 2.50547994e-02 2.45451391e-01 1.16281763e-01
      1.80225372e-01 8.79019052e-02 4.69230652e-01 3.31659466e-01
      2.27403730e-01 3.70428532e-01 2.96574146e-01 3.70428532e-01
      3.70428532e-01 3.70428532e-01 3.70428532e-01 2.46060923e-01
      4.37669903e-01 4.37669903e-01 4.37669903e-01 4.37669903e-01
      3.61693680e-01 8.10724050e-02 5.17187901e-02 4.82724421e-02
      2.94971555e-01 4.79064852e-01 4.79064852e-01 1.49047136e-01
      6.43739328e-02 2.65007794e-01 7.86849633e-02 1.63808018e-01
      4.20824319e-01 4.79064852e-01 4.67248768e-01 3.63776982e-01
      2.66014636e-01 4.67248768e-01 4.67248768e-01 2.01530576e-01
      1.77197590e-01 1.65838644e-01 1.94306850e-01 1.09742776e-01
      1.93512842e-01 2.65905023e-01 3.59239995e-01 5.16227722e-01
      5.16227722e-01 4.08546150e-01 1.62773564e-01 1.38591647e-01
      1.58432588e-01 1.03228405e-01 1.43009186e-01 5.30927479e-01
      5.30927479e-01 5.30927479e-01 1.78068936e-01 1.61626428e-01
      1.87097907e-01 1.09017931e-01 2.77799219e-01 4.23381180e-01
      4.55122232e-01 4.55122232e-01 4.55122232e-01 2.15219557e-01
      2.40867972e-01 3.74089181e-02 3.44771802e-01 3.44525546e-01
      3.44771802e-01 2.13972673e-01 3.44771802e-01 3.44771802e-01
      3.44771802e-01 3.44771802e-01 3.44771802e-01 1.40968725e-01
      3.35001737e-01 3.94567013e-01 4.71384495e-01 4.71384495e-01
      4.71384495e-01 1.56761482e-01 1.23362973e-01 3.32809016e-02
      1.31903902e-01 5.48436679e-02 4.69548970e-01 6.05717182e-01
      6.05717182e-01 1.36755496e-01 0. 1.39229442e-03 2.40577888e-02
      4.73207951e-01 4.73207951e-01 4.73207951e-01 3.66478115e-01
      1.81729436e-01 2.89488941e-01 2.59084478e-02 1.31369069e-01
      2.33305424e-01 4.24048632e-01 4.24048632e-01 3.52039397e-01
      4.24048632e-01 4.24048632e-01 4.30090018e-02 1.96001112e-01
      1.79205209e-01 2.83165187e-01 3.65778774e-01 3.65778774e-01
      3.65778774e-01 2.26610512e-01 3.65778774e-01 2.37880349e-01
      2.92645782e-01 3.65778774e-01 3.65778774e-01 3.38855088e-01
      3.17879975e-01 3.38855088e-01 3.38855088e-01 3.38855088e-01
      3.38855088e-01 3.38855088e-01 3.02997202e-01 3.38855088e-01
      1.07982770e-01 1.02560855e-01 2.63659637e-02 5.84805489e-01
      5.84805489e-01 5.21439493e-01 1.13691680e-01 3.47581878e-02
      3.54738310e-02 1.77019805e-01 4.25217539e-01 4.36241835e-01
      4.36241835e-01 4.36241835e-01 1.64989442e-01 2.65874505e-01
      1.58881649e-01 2.99034208e-01 4.09574032e-01 4.09574032e-01
      1.94595352e-01 3.07332247e-01 3.03564608e-01 8.49872753e-02
      3.05303276e-01 4.09574032e-01 4.09574032e-01 3.36397886e-01
      3.64233851e-01 3.31102908e-01 2.91231841e-01 3.64233851e-01
      3.64233851e-01 3.64233851e-01 3.64233851e-01 1.59439132e-01
      3.33994031e-01 3.33994031e-01 3.33994031e-01 3.22872758e-01
      3.33994031e-01 3.33994031e-01 3.33994031e-01 3.33994031e-01
      3.33994031e-01 3.92101049e-01 3.92101049e-01 3.89686555e-01
      3.92101049e-01 3.92101049e-01 3.92101049e-01 5.21804206e-02
      2.17298403e-01 1.59905076e-01 3.58599983e-03 0. 1.13113038e-01
      5.70611775e-01 5.70611775e-01 5.70611775e-01 6.77621961e-02
      8.80676787e-03 5.64528583e-03 2.21508481e-02 4.21396792e-02
      2.75933236e-01 5.51204860e-01 5.51204860e-01 5.51204860e-01
      6.01875186e-02 3.88500467e-03 3.11763380e-02 3.61586809e-01
      3.61586809e-01 3.18133205e-01 3.61586809e-01 3.61586809e-01
      3.61586809e-01 9.40789506e-02 3.19151551e-01 3.61586809e-01
      4.91975024e-02 6.88584521e-02 1.35948911e-01 4.54369873e-01
      4.54369873e-01 4.54369873e-01 4.54369873e-01 3.78708303e-01
      2.42812894e-02 3.91719043e-01 2.91094810e-01 3.91719043e-01
      3.91719043e-01 3.91719043e-01 3.05919677e-01 2.36856416e-01
      1.31843761e-01 3.61254334e-01 2.06839189e-01 2.43125185e-01
      4.29377615e-01 4.29377615e-01 4.29377615e-01 4.29377615e-01
      2.05152452e-01 2.69488931e-01 2.04073802e-01 3.08567286e-01
      1.83174312e-01 3.01164240e-01 4.34480011e-01 4.34480011e-01
      4.34480011e-01 4.34480011e-01 6.95390254e-02 1.27539128e-01
      5.82257621e-02 1.27556128e-03 1.08439019e-02 6.30213678e-01
      6.97713912e-01 3.00158590e-01 6.48280419e-03 2.60894541e-02
      1.21383063e-01 3.51053119e-01 3.51053119e-01 2.60989338e-01
      2.91966856e-01 3.51053119e-01 3.22029054e-01 3.51053119e-01
      3.51053119e-01 3.51053119e-01 1.04664616e-01 8.39620158e-02
      2.11994484e-01 4.08148199e-01 4.08148199e-01 4.08148199e-01
      4.08148199e-01 4.08148199e-01 3.16309869e-01 3.66955012e-01
      3.66955012e-01 3.66955012e-01 3.66955012e-01 3.66955012e-01
      3.66955012e-01 1.81178585e-01 1.44625068e-01 3.66955012e-01
      2.32972298e-02 2.23269779e-02 1.55086234e-01 6.80708587e-01
      6.80708587e-01 1.98431343e-01 3.82949188e-02 9.35623422e-03
      2.13076305e-02 1.93187475e-01 2.68090606e-01 1.07415184e-01
      6.13561451e-01 6.13561451e-01 2.16167092e-01 5.99414445e-02
      2.46664703e-01 9.51940939e-02 3.68763832e-03 0. 0. 3.40086848e-01
      8.62733483e-01 3.62485558e-01 0. 0. 3.68763832e-03 2.32970759e-01
      1.78841248e-01 4.58092123e-01 4.58092123e-01 4.58092123e-01
      4.58092123e-01 8.48364532e-02 1.22894883e-01 2.17878088e-01
      8.14306587e-02 1.58748925e-01 5.31759918e-01 5.31759918e-01
      5.31759918e-01 2.26023629e-01 1.91348523e-01 1.52450055e-01
      6.00793511e-02 4.65240806e-01 4.65240806e-01 4.65240806e-01
      4.65240806e-01 3.04888368e-01 1.57016162e-02 2.26491102e-04 0.
      1.90665632e-01 0. 0. 0. 0. 0. 0. 0. 0. 0. 0. 0. 0. 0. 0. 0. 0. 0.
      0.</_>
    <_>
      3.98110956e-01 3.98110956e-01 3.98110956e-01 2.45400056e-01
      1.43740252e-01 3.07798713e-01 2.61628985e-01 3.43484312e-01
      3.98110956e-01 3.63389403e-01 3.63389403e-01 3.63389403e-01
      3.63389403e-01 3.63389403e-01 8.39869529e-02 3.18179607e-01
      3.09460998e-01 3.63389403e-01 1.10959083e-01 1.17162436e-01
      2.76946276e-01 4.45831209e-01 4.45831209e-01 4.45831209e-01
      4.45831209e-01 2.08740339e-01 2.32753411e-01 5.83512560e-02
      1.98310822e-01 3.88935387e-01 3.88935387e-01 3.88935387e-01
      3.88935387e-01 3.88935387e-01 3.88935387e-01 2.13911206e-01
      2.07240343e-01 2.52411246e-01 4.60297674e-01 4.60297674e-01
      4.60297674e-01 4.60297674e-01 1.74453214e-01 8.11404362e-03
      1.03666246e-01 1.53237477e-01 1.38634160e-01 4.64242369e-01
      4.64242369e-01 4.64242369e-01 9.34403911e-02 3.86837244e-01
      3.69073600e-01 1.07281700e-01 5.03290951e-01 5.03290951e-01
      5.03290951e-01 1.67735249e-01 2.51566052e-01 2.38905966e-01
      2.01493725e-01 1.18310019e-01 1.78814426e-01 3.91931117e-01
      3.91931117e-01 3.91931117e-01 3.91931117e-01 3.66502404e-01
      3.91931117e-01 1.10462375e-01 1.13629259e-01 2.61910588e-01
      1.84716895e-01 3.50471169e-01 3.50471169e-01 3.50471169e-01
      3.50471169e-01 3.20261985e-01 3.50471169e-01 3.50471169e-01
      3.50471169e-01 4.34144348e-01 4.34144348e-01 1.55898243e-01
      1.37854800e-01 1.63434446e-01 3.11102986e-01 2.73740798e-01
      4.34144348e-01 4.34144348e-01 5.55561364e-01 5.55561364e-01
      2.14132085e-01 3.56558263e-01 2.12747857e-01 5.30090742e-02
      1.05644748e-01 3.68827544e-02 3.78914565e-01 4.32995945e-01
      4.32995945e-01 3.31519395e-01 4.32995945e-01 4.32995945e-01
      2.21771836e-01 1.36339232e-01 1.70961589e-01 1.97049871e-01
      3.53182912e-01 3.53182912e-01 3.53182912e-01 3.53182912e-01
      3.53182912e-01 3.53182912e-01 2.91725993e-01 1.95448667e-01
      3.53182912e-01 4.13201183e-01 4.13201183e-01 4.13201183e-01
      2.50108063e-01 4.13201183e-01 3.89134854e-01 1.60479888e-01
      1.27787352e-01 2.38470271e-01 3.84731770e-01 2.34097242e-01
      3.84731770e-01 1.95528939e-01 1.22523732e-01 3.84731770e-01
      3.84731770e-01 3.84731770e-01 3.84731770e-01 3.95478725e-01
      3.95478725e-01 2.32458279e-01 1.64368361e-01 3.83152783e-01
      3.57843161e-01 1.87615946e-01 3.68412286e-01 3.95478725e-01
      6.97023332e-01 6.97023332e-01 1.07497741e-02 4.02925797e-02
      5.27522787e-02 6.74595907e-02 3.22237797e-02 5.21437302e-02
      9.23531428e-02 3.76875639e-01 3.76875639e-01 3.76875639e-01
      3.76875639e-01 3.76875639e-01 3.39770854e-01 1.67514578e-01
      2.27592606e-02 3.76875639e-01 2.42066860e-01 2.90144652e-01
      5.19431174e-01 5.19431174e-01 4.34060425e-01 3.26906502e-01
      8.51126462e-02 6.03064112e-02 7.91036040e-02 1.02847077e-01
      2.85896748e-01 5.29173136e-01 5.29173136e-01 5.29173136e-01
      2.24884197e-01 8.43166783e-02 2.67048124e-02 6.27116263e-02
      3.53620499e-01 3.53620499e-01 3.53620499e-01 3.53620499e-01
      3.53620499e-01 3.53620499e-01 2.91938424e-01 1.89490348e-01
      3.53620499e-01 3.51505786e-01 3.22470933e-01 3.51505786e-01
      3.51505786e-01 3.51505786e-01 3.51505786e-01 3.51505786e-01
      1.90630227e-01 3.38855088e-01 3.64395440e-01 2.27298900e-01
      2.84285784e-01 3.64395440e-01 2.59175688e-01 3.64395440e-01
      3.64395440e-01 3.64395440e-01 3.64395440e-01 2.64709562e-01
      4.67489451e-01 4.67489451e-01 4.67489451e-01 4.67489451e-01
      1.67651087e-01 4.01016958e-02 1.44292325e-01 2.32067686e-02
      4.33703721e-01 4.33703721e-01 4.33703721e-01 4.33703721e-01
      1.09528765e-01 7.98025429e-02 4.02522609e-02 1.87584192e-01
      4.33703721e-01 4.35761273e-01 4.35761273e-01 3.64182711e-01
      5.33276983e-02 7.33852684e-02 9.56736729e-02 2.93400466e-01
      4.35761273e-01 4.35761273e-01 3.75317842e-01 1.28054306e-01
      3.75317842e-01 3.75317842e-01 3.75317842e-01 3.75317842e-01
      3.60048443e-01 7.09693059e-02 3.75317842e-01 3.36799771e-01
      3.36799771e-01 3.36799771e-01 3.36799771e-01 3.36799771e-01
      2.98600316e-01 3.36799771e-01 3.36799771e-01 3.36799771e-01
      5.66400945e-01 5.66400945e-01 6.96091056e-02 5.40412739e-02
      8.45895261e-02 5.93857802e-02 2.73192711e-02 1.12781651e-01
      5.66400945e-01 2.43927538e-01 3.76899004e-01 2.18974635e-01
      3.72739524e-01 3.76899004e-01 3.76899004e-01 1.98959708e-01
      3.76899004e-01 3.76899004e-01 3.53285491e-01 4.58638705e-02
      3.47408146e-01 3.53285491e-01 3.53285491e-01 3.53285491e-01
      3.53285491e-01 3.53285491e-01 3.53285491e-01 3.83804202e-01
      3.83804202e-01 3.30769151e-01 3.83804202e-01 2.23212466e-01
      1.83321968e-01 2.58453876e-01 3.83804202e-01 3.83804202e-01
      3.88843060e-01 2.51905560e-01 2.22928375e-01 4.10903215e-01
      4.10903215e-01 4.10903215e-01 1.78313211e-01 1.56145453e-01
      4.10903215e-01 3.46696109e-01 2.58458644e-01 2.97233701e-01
      3.46696109e-01 3.46696109e-01 3.46696109e-01 3.46696109e-01
      3.46696109e-01 3.46696109e-01 4.98789042e-01 4.90741938e-01
      8.08273032e-02 7.46103935e-04 1.71709544e-04 2.02783709e-03
      3.57989296e-02 4.98789042e-01 4.98789042e-01 1.67623147e-01
      2.48747498e-01 3.27603489e-01 4.75309819e-01 4.75309819e-01
      4.75309819e-01 2.23282024e-01 1.77414015e-01 1.97146952e-01
      2.96796709e-01 2.40362570e-01 1.05098180e-01 3.74022096e-01
      3.74022096e-01 3.74022096e-01 3.74022096e-01 3.74022096e-01
      3.74022096e-01 4.05402392e-01 2.90569514e-01 1.10813320e-01
      2.16574296e-01 3.85580689e-01 2.15078264e-01 4.05402392e-01
      4.05402392e-01 4.05402392e-01 7.37436339e-02 3.51966858e-01
      3.51966858e-01 3.51966858e-01 3.51966858e-01 3.51966858e-01
      3.51966858e-01 3.51966858e-01 3.51966858e-01 3.74515086e-01
      3.74515086e-01 3.74515086e-01 3.74515086e-01 3.74515086e-01
      1.90142825e-01 3.21306944e-01 1.23679377e-01 3.74515086e-01
      5.65002203e-01 8.60414878e-02 3.67845036e-02 3.58512513e-02
      8.09950978e-02 7.41487667e-02 1.20730147e-01 5.65002203e-01
      5.65002203e-01 1.98609903e-01 1.80630952e-01 2.45861962e-01
      3.80926281e-01 4.25697714e-01 4.25697714e-01 4.25697714e-01
      2.97379941e-01 2.93309987e-01 5.16683221e-01 5.16683221e-01
      1.80704832e-01 1.08447663e-01 2.06840873e-01 2.84446955e-01
      1.20453998e-01 1.06478684e-01 5.16683221e-01 4.21826899e-01
      4.21826899e-01 2.33823821e-01 4.21826899e-01 2.99533010e-01
      1.77222624e-01 2.63139755e-01 1.97460026e-01 4.21826899e-01
      3.95285606e-01 2.39699826e-01 1.94233842e-02 2.67112758e-02
      3.95285606e-01 3.95285606e-01 3.95285606e-01 3.95285606e-01
      3.95285606e-01 1.09002009e-01 7.38369897e-02 2.08544314e-01
      7.24377856e-02 8.40234101e-01 4.58590128e-02 3.04531250e-02
      3.66298288e-01 2.86959618e-01 2.83771157e-01 1.23379618e-01
      3.81063670e-01 1.70842975e-01 3.81063670e-01 3.81063670e-01
      3.81063670e-01 3.81063670e-01 3.81063670e-01 7.30712339e-02
      5.41938394e-02 2.47633681e-01 5.00250638e-01 5.00250638e-01
      5.00250638e-01 1.56379789e-01 1.96680054e-01 3.33938748e-01
      5.35660625e-01 1.49273232e-01 1.47717938e-01 9.97248739e-02
      2.16030866e-01 1.20479941e-01 1.77264541e-01 5.23574650e-01
      5.35660625e-01 4.40283388e-01 2.01380387e-01 3.84246230e-01
      5.08854203e-02 3.57482940e-01 2.03046694e-01 2.32901230e-01
      4.40283388e-01 4.40283388e-01 3.35259110e-01 3.27346772e-01
      3.35259110e-01 3.26426744e-01 3.35259110e-01 3.29466224e-01
      3.35259110e-01 3.35259110e-01 3.35259110e-01 5.66038489e-02
      1.78097427e-01 3.82876039e-01 0. 8.18743408e-01 1.27530217e-01
      3.08587879e-01 1.57431573e-01 6.07988276e-02 4.94767278e-01
      2.28878826e-01 3.27743679e-01 3.90825450e-01 2.59425044e-01
      2.05906071e-02 2.86054194e-01 2.08256885e-01 4.94767278e-01
      1.44587442e-01 2.23088354e-01 1.78794950e-01 9.43538919e-02
      5.18930137e-01 2.49677613e-01 1.14319816e-01 5.18930137e-01
      5.18930137e-01 4.72440213e-01 4.42685753e-01 1.64404348e-01
      1.05020903e-01 2.29237512e-01 1.33634880e-01 1.45756528e-01
      4.72440213e-01 4.72440213e-01 3.02573770e-01 9.15021673e-02
      1.03392899e-01 1.00912549e-01 4.18335766e-01 4.18335766e-01
      4.18335766e-01 4.18335766e-01 4.18335766e-01 3.12265068e-01
      3.56830359e-01 3.56830359e-01 3.56830359e-01 3.56830359e-01
      3.45297009e-01 3.56830359e-01 1.81968570e-01 3.31576973e-01
      4.64301735e-01 7.30796456e-02 1.73570216e-01 1.17302783e-01
      3.96725625e-01 1.83812138e-02 3.76401246e-01 4.64301735e-01
      4.64301735e-01 6.38464510e-01 1.08039729e-01 6.60148310e-03 0.
      4.89154048e-02 4.12889309e-02 1.16584465e-01 3.85935426e-01
      6.38464510e-01 3.39832753e-01 2.69655973e-01 3.39832753e-01
      3.39832753e-01 3.39832753e-01 3.39832753e-01 3.39832753e-01
      3.39832753e-01 3.39832753e-01 3.96289602e-02 2.11720720e-01
      2.38366082e-01 4.40042496e-01 4.40042496e-01 4.40042496e-01
      3.88093561e-01 3.69427919e-01 1.56154290e-01 3.48410815e-01
      3.48410815e-01 3.48410815e-01 3.48410815e-01 3.48410815e-01
      1.59368247e-01 3.48410815e-01 3.48410815e-01 3.48410815e-01
      4.91777621e-02 2.39384741e-01 1.99740246e-01 4.71111745e-01
      4.71111745e-01 4.71111745e-01 3.65541637e-01 2.87899673e-01
      1.15451500e-01 1.88046977e-01 1.08079560e-01 1.39400065e-01
      4.89437640e-01 5.63877046e-01 5.63877046e-01 1.33320421e-01
      9.99738947e-02 1.57037646e-01 1.25259057e-01 1.27270550e-01
      4.15560633e-01 5.59618235e-01 5.59618235e-01 2.94784933e-01
      2.14181125e-01 1.46745548e-01 9.58240926e-02 2.28164807e-01
      1.69694081e-01 1.69851780e-01 2.05127537e-01 4.57030118e-01
      4.57030118e-01 2.73689538e-01 3.76984566e-01 4.57030118e-01
      3.67430598e-02 4.50015627e-02 9.51200947e-02 5.65654278e-01
      5.65654278e-01 5.65654278e-01 2.94587035e-02 9.45569277e-02
      1.10567540e-01 3.36654782e-01 3.31202716e-01 3.36654782e-01
      3.36654782e-01 3.36654782e-01 3.27159554e-01 3.36654782e-01
      3.16052467e-01 3.36654782e-01 3.56473655e-01 3.52111310e-01
      3.08947235e-01 2.66389340e-01 3.56473655e-01 2.65851796e-01
      3.56473655e-01 3.56473655e-01 3.56473655e-01 3.26476187e-01
      2.52856135e-01 2.13733986e-01 5.19193299e-02 3.70055825e-01
      3.45444053e-01 3.49443704e-01 4.46238816e-01 4.46238816e-01
      2.78570861e-01 8.57723355e-02 3.25089283e-02 2.64866263e-01
      2.08217964e-01 4.46099669e-01 4.46099669e-01 4.46099669e-01
      4.46099669e-01 2.17027869e-02 1.60043174e-03 0. 1.32384375e-01
      6.08461201e-01 6.08461201e-01 4.66743559e-01 4.10117321e-02
      1.26269728e-01 3.13780177e-03 5.67720225e-03 4.92248014e-02
      5.73740721e-01 5.73740721e-01 5.73740721e-01 6.52841404e-02 0.
      2.89924489e-03 2.13054106e-01 3.06346208e-01 7.29170293e-02
      3.76757860e-01 3.76757860e-01 3.76757860e-01 3.76757860e-01
      3.76757860e-01 3.76757860e-01 2.76632428e-01 3.39132339e-01
      3.39132339e-01 3.39132339e-01 3.39132339e-01 3.39132339e-01
      3.39132339e-01 3.39132339e-01 3.39132339e-01 2.43376926e-01
      3.58306348e-01 3.58306348e-01 3.58306348e-01 3.58306348e-01
      2.37806410e-01 3.32167357e-01 3.58306348e-01 3.58306348e-01
      3.75763446e-01 3.75763446e-01 3.15028250e-01 8.39902982e-02
      3.75763446e-01 3.72416437e-01 2.12752953e-01 3.75763446e-01
      3.75763446e-01 4.13797677e-01 1.47204682e-01 2.27721050e-01
      1.42508194e-01 4.13797677e-01 4.13797677e-01 4.13797677e-01
      3.72722715e-01 2.79634356e-01 1.30729347e-01 5.50042465e-02
      4.06009644e-01 4.06009644e-01 4.06009644e-01 4.06009644e-01
      4.02467757e-01 1.89635694e-01 3.44254524e-01 2.42368385e-01
      2.52848923e-01 1.65369764e-01 4.05695260e-01 4.05695260e-01
      4.05695260e-01 4.05695260e-01 3.08080375e-01 3.04395914e-01
      2.69354403e-01 8.79312009e-02 1.99866593e-01 3.05866033e-01
      4.57773030e-01 4.57773030e-01 4.57773030e-01 2.05148980e-01
      3.32999408e-01 5.95501848e-02 4.33159888e-01 4.33159888e-01
      4.33159888e-01 4.33159888e-01 4.33159888e-01 1.93856016e-01
      8.68110359e-02 9.41977948e-02 3.69066894e-01 3.04544628e-01
      6.51683062e-02 3.69066894e-01 3.69066894e-01 3.69066894e-01
      3.14299524e-01 3.45662236e-01 3.69066894e-01 2.42668074e-02
      4.59623476e-03 9.24512669e-02 5.60377836e-01 5.60377836e-01
      5.60377836e-01 2.05274761e-01 2.81390734e-02 1.57285277e-02
      7.00801015e-02 3.14615607e-01 6.64086491e-02 2.58959651e-01
      6.03995740e-01 6.03995740e-01 1.05623230e-01 2.28170097e-01
      1.60515144e-01 2.60149501e-02 8.29510950e-03 3.99290249e-02
      1.88767478e-01 6.76044881e-01 6.76044881e-01 1.96897864e-01
      3.47946882e-02 3.50012071e-02 3.67607623e-01 1.72168478e-01
      1.65599734e-01 3.67607623e-01 3.67607623e-01 3.67607623e-01
      3.67607623e-01 3.58399242e-01 3.67607623e-01 3.95942599e-01
      3.95942599e-01 3.95942599e-01 3.95942599e-01 3.95942599e-01
      3.95942599e-01 1.80086359e-01 9.51460078e-02 1.18056856e-01
      3.53876829e-01 3.53876829e-01 3.53876829e-01 3.25710654e-01
      3.53876829e-01 2.53215104e-01 2.73653358e-01 3.53876829e-01
      3.53876829e-01 1.17510110e-01 3.70011479e-02 1.15325451e-02
      1.95374340e-01 6.84434235e-01 6.84434235e-01 1.35628441e-02
      2.31134193e-03 5.09492718e-02 0. 0. 0. 0. 0. 0. 0. 0. 0. 0. 0. 0.
      0. 0. 0. 0. 0. 0. 1.47654772e-01 0. 3.97672789e-04 1.70414280e-02
      3.27190071e-01 4.65350956e-01 4.65350956e-01 4.65350956e-01
      4.65350956e-01 9.74293798e-02 1.86332956e-01 1.95472434e-01
      2.45639816e-01 4.88519192e-01 5.33495903e-01 5.33495903e-01
      1.92559943e-01 8.33390802e-02 2.27430850e-01 1.59293905e-01
      1.07870527e-01 4.34073120e-01 4.34073120e-01 4.34073120e-01
      4.34073120e-01 2.49566555e-01 3.01607728e-01 3.14581394e-03 0. 0.
      2.72376448e-01 8.37064564e-01 4.65575844e-01 0. 0. 3.14581394e-03</_>
    <_>
      1.65117905e-01 1.03561543e-01 3.70002806e-01 3.70002806e-01
      3.70002806e-01 3.70002806e-01 3.70002806e-01 3.70002806e-01
      3.70002806e-01 2.06594944e-01 2.27387249e-01 3.74518365e-01
      3.74518365e-01 3.74518365e-01 3.74518365e-01 3.74431551e-01
      3.74518365e-01 2.45668381e-01 2.62187272e-01 5.51724374e-01
      5.51724374e-01 5.51724374e-01 9.74736512e-02 7.71438004e-03
      1.95443258e-02 4.38881591e-02 2.60805357e-02 4.18303877e-01
      3.93002898e-01 1.92447647e-01 1.56310022e-01 4.18303877e-01
      4.18303877e-01 4.18303877e-01 4.53039669e-02 2.79170424e-01
      4.21818644e-01 3.53196800e-01 1.32187411e-01 2.07444757e-01
      3.89799207e-01 2.50978470e-01 2.48605773e-01 4.21818644e-01
      4.21818644e-01 3.51635218e-01 3.51635218e-01 1.36119932e-01
      3.51635218e-01 3.51635218e-01 3.35301191e-01 3.51635218e-01
      3.51635218e-01 3.51635218e-01 3.15959871e-01 1.75024271e-01
      2.72653133e-01 3.31903607e-01 4.17569220e-01 4.17569220e-01
      1.88384548e-01 3.71743381e-01 3.98063838e-01 3.56888145e-01
      3.56888145e-01 2.42481768e-01 3.56888145e-01 2.14599803e-01
      3.56888145e-01 3.56888145e-01 3.56888145e-01 3.56888145e-01
      3.89779359e-01 3.89779359e-01 3.89779359e-01 2.00773239e-01
      1.25696003e-01 1.68609172e-01 3.89779359e-01 3.89779359e-01
      3.89779359e-01 3.92183453e-01 3.92183453e-01 3.92183453e-01
      2.41586328e-01 2.93453913e-02 1.18362494e-01 3.92183453e-01
      3.92183453e-01 3.92183453e-01 5.25290668e-01 3.49564284e-01
      1.42852470e-01 8.54668617e-02 2.84090638e-01 1.59661233e-01
      1.17364898e-01 4.15948331e-01 5.25290668e-01 2.20741667e-02
      2.21850891e-02 2.02827211e-02 1.52138561e-01 6.95477009e-01
      6.95477009e-01 3.08063030e-02 1.33167105e-02 4.18102602e-03
      3.56085330e-01 3.56085330e-01 1.67876974e-01 3.40840727e-01
      3.56085330e-01 3.56085330e-01 3.02169919e-01 3.56085330e-01
      3.56085330e-01 3.65787119e-01 3.65787119e-01 2.11212367e-01
      3.42174888e-01 3.65787119e-01 3.65787119e-01 3.50700200e-01
      2.06541434e-01 3.65787119e-01 3.67165327e-01 3.67165327e-01
      3.67165327e-01 3.67165327e-01 3.67165327e-01 3.28496635e-01
      9.66074765e-02 2.65002668e-01 3.67165327e-01 8.51457119e-02
      3.65637243e-02 2.14400977e-01 5.00748307e-02 2.57762939e-01
      4.66860026e-01 4.66860026e-01 4.66860026e-01 4.66860026e-01
      4.90233719e-01 3.00487608e-01 6.20097592e-02 9.32414010e-02
      3.85551602e-01 4.52915967e-01 6.58676699e-02 2.31283471e-01
      4.90233719e-01 3.62103105e-01 3.62103105e-01 2.86871582e-01
      3.58412147e-01 3.57619047e-01 2.20267087e-01 2.91108459e-01
      3.62103105e-01 3.62103105e-01 1.38807371e-01 7.75046367e-03
      2.23476887e-01 3.41255337e-01 6.30099654e-01 6.30099654e-01
      1.04141451e-01 5.48058636e-02 9.17239673e-03 2.73914218e-01
      3.77855778e-01 1.51649356e-01 2.03834683e-01 3.77855778e-01
      3.77855778e-01 3.77855778e-01 3.77855778e-01 3.77855778e-01
      3.79121333e-01 3.79121333e-01 3.79121333e-01 3.79121333e-01
      3.79121333e-01 1.14531919e-01 1.39911026e-01 3.79121333e-01
      3.17996383e-01 5.46669185e-01 3.66975009e-01 2.91015476e-01
      2.96784848e-01 2.21786439e-01 1.51531100e-01 6.37396723e-02
      1.14851266e-01 5.46669185e-01 7.01703012e-01 5.10357022e-02
      9.28340200e-03 2.21785735e-02 4.51652287e-03 3.00952736e-02
      2.60063037e-02 5.86155169e-02 7.01703012e-01 4.57949549e-01
      4.57949549e-01 3.16861302e-01 1.05665036e-01 1.54785052e-01
      4.99433130e-02 1.36146128e-01 4.57949549e-01 4.57949549e-01
      6.45494536e-02 2.22674385e-03 1.04358204e-01 2.49086633e-01
      6.42206192e-01 6.25318766e-01 3.29811752e-01 4.03250493e-02
      5.12617752e-02 3.71260971e-01 3.71260971e-01 3.71260971e-01
      2.60821939e-01 3.63744169e-01 1.79661497e-01 2.72948980e-01
      3.71260971e-01 3.71260971e-01 5.38262129e-01 5.38262129e-01
      5.48235700e-02 1.10386759e-01 6.01877943e-02 1.10502712e-01
      1.38789237e-01 2.74152339e-01 5.38262129e-01 4.12905902e-01
      4.12905902e-01 4.12905902e-01 4.12905902e-01 2.59336770e-01
      1.30250052e-01 2.05278397e-01 1.30609944e-01 4.12905902e-01
      6.88584268e-01 1.46269917e-01 7.83642009e-02 1.05222687e-02
      3.98814715e-02 5.32675870e-02 3.29698808e-02 1.08018138e-01
      6.88584268e-01 1.30703926e-01 8.91699865e-02 1.34165049e-01
      4.82252657e-01 4.82252657e-01 4.82252657e-01 4.82252657e-01
      3.33454572e-02 1.44104093e-01 3.64822716e-01 2.42440894e-01
      3.64822716e-01 3.64822716e-01 3.64822716e-01 3.64822716e-01
      3.64822716e-01 1.76227286e-01 3.28553885e-01 5.34086168e-01
      5.30729711e-01 1.19820394e-01 1.57921221e-02 1.13202281e-01
      9.02556852e-02 2.10865110e-01 2.49930024e-01 5.34086168e-01
      5.45677483e-01 5.45677483e-01 4.97403033e-02 3.31817791e-02
      1.38663441e-01 3.66909429e-02 1.17676659e-02 2.77437389e-01
      5.45677483e-01 3.82613569e-01 5.43967299e-02 2.27378801e-01
      2.51313686e-01 3.82613569e-01 3.82613569e-01 3.82613569e-01
      3.82613569e-01 3.82613569e-01 3.61532658e-01 3.31404120e-01
      3.61532658e-01 2.97612578e-01 3.61532658e-01 3.61532658e-01
      3.61532658e-01 1.17264211e-01 3.61532658e-01 3.77358437e-01
      3.77358437e-01 3.77358437e-01 2.11620748e-01 3.77358437e-01
      3.77358437e-01 2.74172008e-01 1.47918925e-01 3.77358437e-01
      3.94825608e-01 2.14435801e-01 2.64471442e-01 3.94825608e-01
      3.94825608e-01 3.94825608e-01 2.33956248e-01 2.14373216e-01
      3.94825608e-01 4.53001827e-01 4.53001827e-01 4.53001827e-01
      4.53001827e-01 2.07262278e-01 2.20477253e-01 1.90555945e-01
      1.57131448e-01 1.48535207e-01 5.59166729e-01 5.57621084e-02
      3.12124286e-02 4.11887318e-02 6.51589781e-02 1.51363671e-01
      1.53222755e-01 5.59166729e-01 5.59166729e-01 3.40410769e-01
      3.85262460e-01 3.72343272e-01 6.13603964e-02 2.90530831e-01
      2.44438857e-01 3.85262460e-01 3.85262460e-01 3.85262460e-01
      4.06974792e-01 4.06974792e-01 2.18425274e-01 4.06974792e-01
      4.06974792e-01 1.62672445e-01 1.79854825e-01 2.47532263e-01
      4.06974792e-01 3.27963680e-01 3.93165916e-01 3.93165916e-01
      3.93165916e-01 3.93165916e-01 3.93165916e-01 1.28161997e-01
      3.11801970e-01 4.43719700e-02 3.72044444e-01 2.58834273e-01
      1.57544255e-01 2.71965712e-01 3.72044444e-01 3.72044444e-01
      3.72044444e-01 3.72044444e-01 3.72044444e-01 3.59902531e-01
      3.59902531e-01 3.59902531e-01 1.75880641e-01 2.60270089e-01
      3.47204357e-01 3.59902531e-01 3.59902531e-01 3.59902531e-01
      6.00660503e-01 1.00522220e-01 9.15353820e-02 2.62198206e-02
      8.22100565e-02 3.78184877e-02 1.38902534e-02 4.94837135e-01
      6.00660503e-01 1.22194581e-01 3.25094432e-01 8.52885023e-02
      3.83550137e-01 3.83550137e-01 3.83550137e-01 3.64311069e-01
      3.83550137e-01 3.83550137e-01 3.34147751e-01 3.34147751e-01
      3.34147751e-01 3.21595222e-01 3.34147751e-01 3.34147751e-01
      3.34147751e-01 3.34147751e-01 3.34147751e-01 3.57565969e-01
      3.44226778e-01 3.57565969e-01 3.57565969e-01 3.57565969e-01
      3.57565969e-01 7.49036223e-02 3.24352324e-01 3.57565969e-01
      3.60398263e-01 2.77584732e-01 2.03693226e-01 3.35786283e-01
      3.76255631e-01 3.76255631e-01 3.76255631e-01 3.76255631e-01
      2.62267709e-01 3.58073324e-01 3.58073324e-01 2.98909992e-02
      3.58073324e-01 3.58073324e-01 3.58073324e-01 3.13071042e-01
      3.58073324e-01 3.58073324e-01 4.45691586e-01 4.45691586e-01
      1.48505390e-01 5.55775240e-02 8.56035724e-02 8.35612416e-02
      4.01909083e-01 4.45691586e-01 4.45691586e-01 1.95188954e-01
      1.35705993e-01 1.47043571e-01 6.60699680e-02 3.21812183e-02
      9.18777585e-02 5.48495948e-01 5.48495948e-01 5.48495948e-01
      1.34083301e-01 4.70103249e-02 1.84375063e-01 5.44473708e-01
      5.44473708e-01 5.44473708e-01 9.87007320e-02 6.58534914e-02
      1.92215919e-01 1.49063766e-01 2.27346584e-01 2.23532036e-01
      6.35894239e-01 6.35894239e-01 1.79335564e-01 6.43070340e-02
      1.41534925e-01 6.87486008e-02 1.26408979e-01 1.77332431e-01
      3.74226063e-01 3.74226063e-01 3.74226063e-01 3.74226063e-01
      3.74226063e-01 3.61120731e-01 3.43804330e-01 3.76029253e-01
      3.76029253e-01 2.05038577e-01 2.73283720e-01 2.18653902e-01
      3.53155553e-01 3.76029253e-01 3.76029253e-01 3.76029253e-01
      3.37512434e-01 3.37512434e-01 3.37512434e-01 3.37512434e-01
      3.37512434e-01 3.37512434e-01 3.25885147e-01 3.37512434e-01
      3.04998398e-01 1.73800111e-01 4.55987394e-01 1.26796141e-01
      6.29277602e-02 9.17363539e-02 3.06246519e-01 4.60084736e-01
      4.60084736e-01 4.60084736e-01 3.84484917e-01 2.77068466e-01
      5.99438697e-02 1.96062863e-01 3.84484917e-01 3.84484917e-01
      3.84484917e-01 3.71772498e-01 3.84484917e-01 3.44836324e-01
      3.12056035e-01 3.44836324e-01 2.61545718e-01 3.44836324e-01
      3.44836324e-01 3.42486352e-01 3.44836324e-01 3.44836324e-01
      3.57010275e-01 3.57010275e-01 3.40353996e-01 3.57010275e-01
      3.57010275e-01 3.10518146e-01 1.39401197e-01 3.57010275e-01
      3.57010275e-01 3.13305914e-01 3.55415821e-01 3.34868103e-01
      1.68015450e-01 3.55415821e-01 3.55415821e-01 3.55415821e-01
      3.55415821e-01 3.55415821e-01 3.32778692e-01 3.32778692e-01
      3.32778692e-01 3.32778692e-01 3.32778692e-01 3.32778692e-01
      3.32778692e-01 3.32778692e-01 3.32778692e-01 2.38100097e-01
      4.10325173e-03 6.23807609e-02 3.97441983e-01 3.97441983e-01
      3.97441983e-01 3.81613821e-01 3.97441983e-01 3.97441983e-01
      5.00865877e-01 7.81482086e-02 9.46218893e-02 1.43525794e-01
      1.49733663e-01 2.76524931e-01 3.28407496e-01 5.00865877e-01
      5.00865877e-01 4.15779591e-01 4.15779591e-01 4.15779591e-01
      2.39475220e-01 4.15779591e-01 2.31917083e-01 4.50664088e-02
      3.55988652e-01 2.53895491e-01 8.51880535e-02 1.56088114e-01
      3.91902179e-01 2.07220897e-01 3.91902179e-01 3.91902179e-01
      3.91902179e-01 3.91902179e-01 3.91902179e-01 5.01698732e-01
      5.01698732e-01 2.55098552e-01 1.24447942e-01 9.33729038e-02
      2.57983785e-02 9.22979712e-02 3.76056969e-01 5.01698732e-01
      3.98314178e-01 3.98314178e-01 3.98314178e-01 1.51476189e-01
      1.12103514e-01 2.80003875e-01 3.75047505e-01 3.26847017e-01
      3.98314178e-01 1.70474961e-01 4.17694356e-03 0. 0. 0.
      1.20830089e-01 3.91089588e-01 6.31295025e-01 6.31295025e-01
      6.46031648e-02 1.82987645e-01 3.21918428e-01 3.06790411e-01
      3.90049577e-01 3.90049577e-01 3.90049577e-01 3.90049577e-01
      3.90049577e-01 3.22643034e-02 1.72198564e-02 1.33273125e-01
      6.43880546e-01 6.43880546e-01 3.56413335e-01 1.03348620e-01
      8.03973228e-02 3.36569957e-02 6.01641893e-01 6.01641893e-01
      1.59670621e-01 3.41125205e-02 2.76617646e-01 2.37495452e-01
      2.88740903e-01 9.38077122e-02 1.35261878e-01 4.55317706e-01
      4.55317706e-01 4.55317706e-01 2.96488702e-02 8.45235437e-02
      1.61629334e-01 7.64199123e-02 3.55257452e-01 4.55317706e-01
      3.56202513e-01 3.56202513e-01 3.56202513e-01 3.56202513e-01
      3.56202513e-01 3.56202513e-01 1.32485494e-01 3.56202513e-01
      3.01209599e-01 3.74706060e-01 3.74706060e-01 3.74706060e-01
      9.49094072e-02 2.87861019e-01 2.48911381e-01 3.74706060e-01
      3.74706060e-01 3.74706060e-01 2.09817424e-01 1.06940955e-01
      1.98500514e-01 1.61071166e-01 3.00746113e-01 3.72541845e-01
      4.63797957e-01 4.63797957e-01 4.63797957e-01 2.23026991e-01
      2.96258986e-01 2.98141837e-01 3.90176952e-01 3.90176952e-01
      3.90176952e-01 3.90176952e-01 3.90176952e-01 9.22652707e-02
      6.47446632e-01 6.47446632e-01 2.66223460e-01 4.23551686e-02
      1.16568998e-01 2.36172304e-02 1.18015343e-02 2.39922367e-02
      2.60061204e-01 4.96021718e-01 4.96021718e-01 4.60738033e-01
      1.80022065e-02 1.01030357e-01 2.74376068e-02 3.88970450e-02
      1.78484768e-01 4.96021718e-01 4.17155802e-01 2.95915037e-01
      1.92712963e-01 8.11666325e-02 2.58704305e-01 3.18648666e-01
      4.17155802e-01 4.17155802e-01 4.17155802e-01 3.39838237e-01
      3.37510884e-01 7.72698224e-02 3.64792883e-01 3.64792883e-01
      3.64792883e-01 3.64792883e-01 3.64792883e-01 3.09211910e-01
      5.59381127e-01 7.09275380e-02 6.94958642e-02 3.05254702e-02
      2.18529683e-02 5.36929555e-02 2.03812599e-01 5.59381127e-01
      5.59381127e-01 8.81046709e-03 6.66702837e-02 9.68529806e-02
      6.67744204e-02 4.72669810e-01 4.85168546e-01 4.85168546e-01
      4.85168546e-01 2.17278719e-01 3.70459199e-01 4.85121876e-01
      4.85121876e-01 4.85121876e-01 1.87716216e-01 5.24168424e-02
      2.03016922e-01 1.91990793e-01 1.89271480e-01 4.06727850e-01
      4.06727850e-01 3.81651998e-01 2.59272218e-01 3.11883658e-01
      1.54867396e-01 9.54228640e-03 4.06727850e-01 4.06727850e-01
      2.29706585e-01 3.99529971e-02 3.89620304e-01 3.89620304e-01
      3.89620304e-01 3.89620304e-01 3.89620304e-01 3.89620304e-01
      1.75847620e-01 1.41758472e-01 1.54651970e-01 1.37930572e-01
      4.22617763e-01 4.22617763e-01 4.22617763e-01 4.22617763e-01
      4.22617763e-01 1.99278235e-01 3.72535437e-01 1.04932323e-01
      2.30850235e-01 3.15086663e-01 3.72535437e-01 3.72535437e-01
      3.72535437e-01 3.72535437e-01 3.72535437e-01 4.43894863e-01
      4.43894863e-01 4.43894863e-01 3.02769065e-01 4.43894863e-01
      2.16650769e-01 1.79836228e-01 1.70828894e-01 8.52354690e-02
      3.64318967e-01 3.64318967e-01 1.94044665e-01 3.64318967e-01
      3.64318967e-01 3.64318967e-01 3.64318967e-01 3.64318967e-01
      1.72071531e-01 3.96597236e-01 3.96597236e-01 3.96597236e-01
      3.96597236e-01 3.96597236e-01 3.96597236e-01 1.38208151e-01
      1.64820880e-01 7.76821151e-02 3.35095823e-01 1.00292914e-01
      1.28839791e-01 4.33983296e-01 4.33983296e-01 4.33983296e-01
      1.35205865e-01 2.91668922e-01 4.33983296e-01 9.70391259e-02
      1.56993736e-02 3.32378335e-02 1.24172635e-01 4.43665236e-01
      4.43665236e-01 4.43665236e-01 4.26645368e-01 4.43665236e-01
      1.79406658e-01 1.23427525e-01 3.47529590e-01 6.32560670e-01
      6.32560670e-01 1.37960196e-01 5.12684956e-02 4.96485084e-02
      3.30771208e-02 1.50448427e-01 1.00149587e-01 4.21293706e-01
